-1 0:1 1:0.206896551724138 2:0.4 3:-0.307017543859649 
+1 0:1 1:0.0775862068965523 2:-0.2 3:-0.228070175438596 
+1 0:1 1:-0.112068965517242 2:0.74 3:-0.570175438596492 
+1 0:1 1:-0.0172413793103451 2:-0.26 3:0 
-1 0:1 1:-0.267241379310346 2:0.26 3:0.307017543859649 
+1 0:1 1:-0.396551724137931 2:0.16 3:0.18421052631579 
-1 0:1 1:0.387931034482759 2:0.36 3:-0.43859649122807 
-1 0:1 1:0.103448275862069 2:-0.44 3:-0.140350877192982 
-1 0:1 1:0.310344827586208 2:0.38 3:-0.368421052631578 
+1 0:1 1:0 2:0.42 3:0.245614035087719 
-1 0:1 1:0.327586206896552 2:0.64 3:-0.692982456140352 
+1 0:1 1:-0.413793103448276 2:-0.12 3:0.307017543859649 
-1 0:1 1:-0.310344827586208 2:0.12 3:0.456140350877194 
-1 0:1 1:-0.0862068965517242 2:-0.1 3:-0.026315789473684 
+1 0:1 1:0 2:-0.0400000000000002 3:-0.289473684210526 
-1 0:1 1:-0.422413793103449 2:-0.22 3:0.307017543859649 
+1 0:1 1:-0.336206896551725 2:0.34 3:0.342105263157894 
-1 0:1 1:-0.163793103448276 2:-0.5 3:0.0877192982456141 
+1 0:1 1:0.189655172413793 2:-0.38 3:-0.0614035087719301 
-1 0:1 1:-0.35344827586207 2:-0.4 3:0.570175438596492 
+1 0:1 1:0.017241379310345 2:0.68 3:-0.026315789473684 
-1 0:1 1:-0.025862068965517 2:0.16 3:-0.236842105263158 
+1 0:1 1:-0.120689655172414 2:-0.28 3:0.026315789473684 
-1 0:1 1:0.129310344827586 2:-0.18 3:-0.359649122807017 
+1 0:1 1:-0.146551724137931 2:0.34 3:0.236842105263158 
-1 0:1 1:-0.051724137931034 2:0 3:0.201754385964912 
-1 0:1 1:0.0344827586206888 2:0.66 3:-0.0614035087719301 
-1 0:1 1:0.0344827586206889 2:0.2 3:0.18421052631579 
-1 0:1 1:-0.525862068965517 2:0.66 3:0 
+1 0:1 1:-0.405172413793104 2:0.68 3:0.175438596491228 
+1 0:1 1:0.025862068965517 2:0.0199999999999999 3:-0.131578947368421 
+1 0:1 1:0.336206896551725 2:0.1 3:-0.473684210526317 
-1 0:1 1:-0.18103448275862 2:-0.1 3:-0.105263157894736 
+1 0:1 1:0.422413793103449 2:0.22 3:-0.307017543859649 
+1 0:1 1:0.500000000000001 2:0.32 3:-0.447368421052631 
-1 0:1 1:0.112068965517242 2:-0.74 3:0.570175438596492 
-1 0:1 1:0.405172413793104 2:-0.68 3:-0.175438596491228 
-1 0:1 1:0.293103448275863 2:-0.0199999999999999 3:-0.631578947368422 
-1 0:1 1:-0.362068965517242 2:0.22 3:0.219298245614035 
+1 0:1 1:0.310344827586208 2:-0.44 3:-0.324561403508772 
-1 0:1 1:-0.017241379310345 2:-0.68 3:0.026315789473684 
-1 0:1 1:-0.258620689655172 2:-0.62 3:0.37719298245614 
+1 0:1 1:0.275862068965518 2:-0.28 3:0.289473684210526 
+1 0:1 1:0.275862068965518 2:-0.16 3:-0.210526315789474 
+1 0:1 1:-0.301724137931035 2:-0.56 3:0.482456140350878 
-1 0:1 1:-0.301724137931035 2:-0.72 3:0.500000000000001 
+1 0:1 1:-0.413793103448277 2:0.18 3:-0.149122807017544 
+1 0:1 1:0.112068965517241 2:0.52 3:-0.228070175438596 
+1 0:1 1:0.275862068965518 2:-0.28 3:-0.0350877192982461 
-1 0:1 1:-0.681034482758621 2:0.6 3:0.719298245614035 
-1 0:1 1:-0.362068965517242 2:-0.02 3:0.666666666666668 
-1 0:1 1:-0.198275862068965 2:0.64 3:-0.175438596491228 
+1 0:1 1:0.0431034482758621 2:0.0600000000000001 3:-0.043859649122807 
-1 0:1 1:-0.120689655172413 2:0.34 3:-0.096491228070175 
-1 0:1 1:-0.21551724137931 2:0.26 3:0.289473684210526 
-1 0:1 1:-0.025862068965517 2:-0.26 3:0.219298245614035 
-1 0:1 1:-0.017241379310345 2:-0.26 3:0.271929824561403 
-1 0:1 1:0.241379310344829 2:-0.42 3:-0.043859649122807 
-1 0:1 1:-0.85344827586207 2:-0.42 3:0.578947368421053 
+1 0:1 1:0.327586206896553 2:0.48 3:-0.37719298245614 
+1 0:1 1:0.21551724137931 2:-0.14 3:-0.271929824561404 
+1 0:1 1:0.0172413793103439 2:0.38 3:-0.421052631578947 
+1 0:1 1:0.0775862068965523 2:0.32 3:-0.412280701754387 
+1 0:1 1:0.362068965517242 2:-0.5 3:-0.105263157894736 
+1 0:1 1:0.310344827586207 2:0.14 3:-0.245614035087719 
-1 0:1 1:-0.077586206896551 2:-0.18 3:-0.149122807017544 
+1 0:1 1:0.146551724137931 2:0.5 3:-0.271929824561403 
-1 0:1 1:0.318965517241379 2:0.2 3:0.0614035087719289 
+1 0:1 1:-0.068965517241379 2:-0.0399999999999999 3:0.0350877192982462 
+1 0:1 1:0.344827586206897 2:-0.24 3:-0.140350877192982 
-1 0:1 1:-0.431034482758621 2:0.7 3:0.236842105263158 
-1 0:1 1:-0.870689655172414 2:0.22 3:0.298245614035088 
-1 0:1 1:-0.793103448275863 2:0.0999999999999999 3:0.508771929824562 
+1 0:1 1:-0.301724137931035 2:-0.6 3:0.131578947368421 
+1 0:1 1:-0.293103448275863 2:0.26 3:0.184210526315789 
-1 0:1 1:0.379310344827586 2:0.12 3:-0.263157894736842 
+1 0:1 1:0.198275862068965 2:-0.64 3:0.175438596491228 
+1 0:1 1:0.439655172413793 2:0.36 3:-0.640350877192983 
+1 0:1 1:0.0258620689655169 2:-0.4 3:-0.25438596491228 
-1 0:1 1:-0.129310344827586 2:-0.72 3:0.350877192982456 
-1 0:1 1:-0.327586206896552 2:-0.64 3:0.692982456140352 
+1 0:1 1:-0.0431034482758621 2:0.0199999999999999 3:0.0350877192982462 
-1 0:1 1:-0.327586206896552 2:0.32 3:-0.0701754385964911 
-1 0:1 1:-0.387931034482759 2:-0.6 3:0.526315789473685 
+1 0:1 1:0.0603448275862071 2:0.42 3:0.0614035087719301 
-1 0:1 1:0.750000000000001 2:-0.58 3:-0.710526315789474 
+1 0:1 1:-0.31896551724138 2:0.74 3:-0.0877192982456141 
-1 0:1 1:0.0344827586206902 2:-0.38 3:0.219298245614035 
+1 0:1 1:0.301724137931035 2:0.72 3:-0.500000000000001 
-1 0:1 1:0.0344827586206902 2:0.4 3:-0.271929824561404 
-1 0:1 1:-0.439655172413793 2:-0.6 3:0.728070175438597 
+1 0:1 1:0.0258620689655169 2:0.3 3:-0.12280701754386 
+1 0:1 1:0.0172413793103439 2:-0.4 3:0.19298245614035 
+1 0:1 1:-0.146551724137931 2:0.12 3:0.280701754385964 
+1 0:1 1:0.310344827586208 2:0.0599999999999998 3:-0.0877192982456141 
+1 0:1 1:0.353448275862069 2:0.2 3:-0.070175438596491 
+1 0:1 1:0.129310344827586 2:-0.42 3:-0.0263157894736852 
-1 0:1 1:0.0775862068965522 2:-0.36 3:-0.245614035087719 
-1 0:1 1:0.810344827586208 2:0.16 3:-0.780701754385965 
+1 0:1 1:-0.551724137931035 2:0.42 3:0.359649122807017 
+1 0:1 1:-0.0344827586206902 2:0.42 3:-0.526315789473685 
+1 0:1 1:0.379310344827587 2:-0.36 3:-0.37719298245614 
+1 0:1 1:-0.431034482758621 2:-0.2 3:0.271929824561403 
-1 0:1 1:-0.275862068965518 2:0.84 3:0.052631578947368 
-1 0:1 1:-0.689655172413793 2:-0.2 3:0.605263157894738 
+1 0:1 1:-0.327586206896552 2:0.0199999999999999 3:0.175438596491228 
+1 0:1 1:0.689655172413793 2:0.34 3:-0.368421052631579 
-1 0:1 1:0.327586206896552 2:0.4 3:-0.245614035087719 
-1 0:1 1:-0.793103448275863 2:0.52 3:0.754385964912281 
+1 0:1 1:0.31896551724138 2:-0.74 3:0.0877192982456141 
-1 0:1 1:0.025862068965517 2:0.0800000000000001 3:-0.210526315789474 
-1 0:1 1:0.344827586206897 2:0.08 3:-0.271929824561403 
+1 0:1 1:0.129310344827586 2:0.72 3:-0.350877192982456 
-1 0:1 1:-0.362068965517242 2:0.5 3:0.105263157894736 
+1 0:1 1:0.336206896551725 2:-0.28 3:-0.543859649122808 
+1 0:1 1:-0.189655172413793 2:0.38 3:0.0614035087719301 
+1 0:1 1:-0.655172413793103 2:-0.58 3:0.543859649122808 
-1 0:1 1:0.0344827586206902 2:0.5 3:-0.394736842105263 
-1 0:1 1:0.413793103448277 2:-0.18 3:0.149122807017544 
+1 0:1 1:0.336206896551724 2:0.3 3:-0.245614035087719 
-1 0:1 1:-0.00862068965517193 2:0.42 3:-0.236842105263158 
-1 0:1 1:-0.137931034482758 2:-0.38 3:0.157894736842106 
+1 0:1 1:-0.474137931034483 2:-0.18 3:0.201754385964912 
+1 0:1 1:-0.206896551724137 2:0.3 3:0.149122807017544 
-1 0:1 1:-0.568965517241379 2:-0.18 3:1 
+1 0:1 1:-0.275862068965518 2:0.28 3:0.0350877192982461 
+1 0:1 1:-0.35344827586207 2:-0.16 3:0.122807017543859 
+1 0:1 1:-0.0431034482758621 2:-0.0600000000000001 3:0.043859649122807 
+1 0:1 1:0.258620689655172 2:0.62 3:-0.37719298245614 
+1 0:1 1:-0.387931034482759 2:-0.36 3:0.43859649122807 
+1 0:1 1:0.81896551724138 2:-0.5 3:-0.763157894736842 
+1 0:1 1:0.301724137931035 2:0.6 3:-0.131578947368421 
-1 0:1 1:-0.21551724137931 2:0.14 3:0.271929824561404 
+1 0:1 1:-0.0689655172413791 2:-0.6 3:0.0877192982456141 
+1 0:1 1:-0.560344827586207 2:0.26 3:0.271929824561404 
+1 0:1 1:-0.353448275862069 2:-0.1 3:0.131578947368421 
+1 0:1 1:-0.198275862068967 2:0.4 3:0.00877192982456088 
+1 0:1 1:0.0862068965517242 2:0.5 3:-0.596491228070176 
-1 0:1 1:0.155172413793103 2:0 3:-0.280701754385965 
+1 0:1 1:-0.051724137931034 2:0.0399999999999999 3:-0.105263157894737 
+1 0:1 1:0.112068965517241 2:0.78 3:-0.421052631578947 
+1 0:1 1:0.146551724137931 2:0.26 3:-0.184210526315789 
+1 0:1 1:0.344827586206897 2:-0.48 3:-0.219298245614035 
+1 0:1 1:0.310344827586208 2:-0.12 3:-0.456140350877194 
-1 0:1 1:-0.189655172413792 2:0.56 3:-0.122807017543859 
+1 0:1 1:0.112068965517241 2:0.08 3:-0.0350877192982462 
+1 0:1 1:-0.5 2:-0.2 3:0.333333333333333 
-1 0:1 1:-0.982758620689656 2:0 3:0.850877192982456 
+1 0:1 1:-0.224137931034484 2:0.32 3:0.219298245614035 
-1 0:1 1:-0.051724137931034 2:-0.34 3:0.0877192982456141 
+1 0:1 1:-0.353448275862069 2:-0.26 3:0.149122807017544 
+1 0:1 1:-0.068965517241379 2:-0.08 3:0.0526315789473679 
-1 0:1 1:0.0603448275862072 2:0.18 3:-0.140350877192982 
+1 0:1 1:0.577586206896552 2:0.34 3:-0.280701754385964 
-1 0:1 1:0.112068965517241 2:0.0800000000000001 3:-0.140350877192983 
+1 0:1 1:0.172413793103448 2:0.52 3:-0.403508771929824 
+1 0:1 1:0.137931034482758 2:0.38 3:-0.157894736842106 
+1 0:1 1:-0.327586206896553 2:-0.48 3:0.37719298245614 
+1 0:1 1:-0.0689655172413791 2:0.14 3:0.00877192982456221 
+1 0:1 1:0.0862068965517242 2:0.34 3:-0.578947368421053 
-1 0:1 1:0.793103448275863 2:-0.0999999999999999 3:-0.508771929824562 
-1 0:1 1:0.551724137931035 2:-0.38 3:-0.070175438596491 
+1 0:1 1:-0.336206896551725 2:0.28 3:0.543859649122808 
+1 0:1 1:-0.0344827586206888 2:-0.66 3:0.0614035087719301 
+1 0:1 1:0.681034482758621 2:0.58 3:-0.508771929824562 
-1 0:1 1:0.0948275862068961 2:-0.18 3:-0.140350877192983 
+1 0:1 1:0.310344827586208 2:-0.2 3:-0.350877192982456 
+1 0:1 1:-0.163793103448276 2:0.78 3:-0.0789473684210532 
+1 0:1 1:-0.275862068965518 2:0.22 3:-0.140350877192983 
+1 0:1 1:0.439655172413793 2:-0.14 3:-0.385964912280701 
-1 0:1 1:-0.344827586206897 2:0.76 3:0.105263157894736 
-1 0:1 1:-0.474137931034483 2:0.66 3:0.166666666666667 
+1 0:1 1:0.689655172413793 2:-0.0399999999999998 3:-0.517543859649124 
+1 0:1 1:0.517241379310345 2:-0.24 3:-0.236842105263158 
+1 0:1 1:-0.112068965517241 2:-0.78 3:0.421052631578947 
-1 0:1 1:-0.0172413793103439 2:-0.38 3:0.421052631578947 
+1 0:1 1:0.663793103448276 2:0.32 3:-0.236842105263158 
+1 0:1 1:-0.025862068965517 2:0.32 3:-0.254385964912281 
+1 0:1 1:0.31896551724138 2:-0.78 3:-0.096491228070175 
+1 0:1 1:-0.637931034482758 2:0.58 3:0.140350877192983 
-1 0:1 1:-0.146551724137931 2:-0.26 3:0.184210526315789 
+1 0:1 1:-0.181034482758622 2:0.76 3:-0.289473684210526 
-1 0:1 1:-0.379310344827586 2:-0.28 3:0.280701754385965 
+1 0:1 1:0.465517241379311 2:-0.18 3:-0.052631578947368 
-1 0:1 1:-0.603448275862069 2:0.24 3:0.473684210526315 
+1 0:1 1:-0.137931034482758 2:-0.34 3:0.447368421052633 
-1 0:1 1:-0.051724137931034 2:-0.0999999999999999 3:-0.359649122807019 
+1 0:1 1:0.129310344827586 2:-0.4 3:-0.140350877192982 
+1 0:1 1:-0.137931034482759 2:-0.54 3:0.298245614035087 
-1 0:1 1:-0.146551724137931 2:0.0199999999999999 3:0.368421052631579 
-1 0:1 1:0.0603448275862072 2:0.42 3:-0.587719298245615 
+1 0:1 1:0.0344827586206902 2:-0.9 3:0.140350877192983 
+1 0:1 1:0.31896551724138 2:-0.36 3:0.149122807017544 
-1 0:1 1:0.310344827586207 2:0.28 3:-0.114035087719298 
+1 0:1 1:-0.163793103448276 2:-0.22 3:-0.0263157894736852 
+1 0:1 1:0.025862068965517 2:-0.32 3:0.254385964912281 
-1 0:1 1:-0.439655172413793 2:-0.36 3:0.640350877192983 
-1 0:1 1:0.0689655172413803 2:-0.0400000000000002 3:-0.157894736842105 
-1 0:1 1:-0.577586206896552 2:0.16 3:0.578947368421052 
+1 0:1 1:0.405172413793104 2:-0.64 3:0.114035087719298 
+1 0:1 1:0.0431034482758621 2:-0.52 3:-0.0526315789473692 
+1 0:1 1:0.663793103448276 2:-0.1 3:-0.482456140350878 
+1 0:1 1:0.232758620689656 2:-0.24 3:-0.0964912280701763 
+1 0:1 1:0.336206896551725 2:0.14 3:-0.298245614035088 
+1 0:1 1:0.18103448275862 2:0.64 3:-0.42982456140351 
+1 0:1 1:-0.474137931034483 2:-0.26 3:0.657894736842106 
+1 0:1 1:0.543103448275862 2:-0.3 3:-0.333333333333335 
-1 0:1 1:0.594827586206896 2:-0.0600000000000001 3:-0.0877192982456141 
+1 0:1 1:0.35344827586207 2:0.16 3:-0.122807017543859 
-1 0:1 1:-0.422413793103449 2:0.0199999999999999 3:0.219298245614035 
+1 0:1 1:0.46551724137931 2:0.62 3:-0.859649122807018 
+1 0:1 1:0.620689655172414 2:-0.18 3:-0.333333333333333 
-1 0:1 1:-0.0689655172413792 2:-0.0199999999999999 3:-0.00877192982456088 
-1 0:1 1:-0.068965517241379 2:0.24 3:-0.0789473684210532 
+1 0:1 1:-0.0172413793103451 2:-0.26 3:0 
+1 0:1 1:0.0431034482758621 2:-0.26 3:0.0877192982456141 
+1 0:1 1:-0.189655172413793 2:-0.14 3:0.0350877192982462 
-1 0:1 1:-0.465517241379311 2:0.18 3:0.052631578947368 
-1 0:1 1:-0.448275862068965 2:0.2 3:0.0789473684210532 
-1 0:1 1:0.655172413793103 2:0.82 3:-0.631578947368422 
+1 0:1 1:-0.810344827586208 2:-0.16 3:0.780701754385965 
+1 0:1 1:-0.077586206896551 2:-0.0199999999999999 3:-0.166666666666667 
+1 0:1 1:-0.0172413793103451 2:0.1 3:-0.175438596491228 
-1 0:1 1:-0.405172413793104 2:0.64 3:-0.114035087719298 
+1 0:1 1:0.456896551724138 2:-0.4 3:-0.359649122807019 
+1 0:1 1:-0.189655172413793 2:0.22 3:0.0614035087719301 
+1 0:1 1:-0.293103448275863 2:0.26 3:0.184210526315789 
-1 0:1 1:0.120689655172414 2:-0.14 3:-0.271929824561403 
-1 0:1 1:-0.689655172413793 2:0.0399999999999998 3:0.517543859649124 
+1 0:1 1:0.0431034482758621 2:-0.0800000000000001 3:-0.140350877192982 
+1 0:1 1:0.068965517241379 2:0.08 3:-0.0526315789473679 
+1 0:1 1:-0.129310344827586 2:0.36 3:-0.149122807017544 
-1 0:1 1:0.172413793103448 2:-0.16 3:-0.070175438596491 
-1 0:1 1:-0.336206896551725 2:-0.14 3:0.298245614035088 
+1 0:1 1:-0.198275862068965 2:-0.0999999999999999 3:-0.0964912280701763 
+1 0:1 1:-0.344827586206897 2:-0.54 3:0.517543859649124 
-1 0:1 1:-0.293103448275862 2:-0.1 3:0.456140350877194 
-1 0:1 1:0.129310344827586 2:-0.42 3:-0.271929824561403 
+1 0:1 1:0.189655172413793 2:-0.0600000000000001 3:-0.0789473684210532 
+1 0:1 1:0.232758620689655 2:0.36 3:-0.157894736842105 
+1 0:1 1:0.439655172413793 2:0.6 3:-0.728070175438597 
+1 0:1 1:0.577586206896552 2:-0.16 3:-0.578947368421052 
+1 0:1 1:0.00862068965517193 2:-0.38 3:-0.0964912280701763 
+1 0:1 1:0.318965517241379 2:0.16 3:-0.228070175438597 
-1 0:1 1:0.267241379310346 2:-0.1 3:-0.421052631578947 
+1 0:1 1:-0.120689655172414 2:-0.08 3:0.070175438596491 
+1 0:1 1:0.00862068965517326 2:-0.92 3:0.149122807017544 
+1 0:1 1:0.551724137931035 2:-0.2 3:-0.578947368421053 
-1 0:1 1:-0.71551724137931 2:0.0600000000000001 3:0.62280701754386 
+1 0:1 1:0.508620689655173 2:-0.26 3:-0.19298245614035 
-1 0:1 1:-0.0603448275862072 2:-0.42 3:0.587719298245615 
+1 0:1 1:-0.0172413793103451 2:-0.14 3:0.271929824561404 
-1 0:1 1:0.206896551724137 2:-0.24 3:0.122807017543859 
+1 0:1 1:0.405172413793104 2:0.5 3:-0.210526315789473 
+1 0:1 1:-0.068965517241379 2:-0.36 3:0.166666666666667 
+1 0:1 1:0.0862068965517242 2:-0.42 3:0.324561403508772 
+1 0:1 1:-0.129310344827586 2:0.4 3:0.140350877192982 
-1 0:1 1:0.336206896551725 2:-0.0999999999999999 3:0.149122807017544 
+1 0:1 1:0.655172413793103 2:0.58 3:-0.543859649122808 
+1 0:1 1:-0.232758620689655 2:-0.6 3:0.245614035087719 
-1 0:1 1:0.431034482758621 2:-0.58 3:0.342105263157894 
+1 0:1 1:0.206896551724137 2:-0.4 3:0.140350877192982 
-1 0:1 1:-0.0775862068965523 2:-0.12 3:0.359649122807017 
-1 0:1 1:-0.439655172413793 2:0.14 3:0.385964912280701 
-1 0:1 1:-0.301724137931035 2:-0.56 3:0.421052631578947 
+1 0:1 1:0.370689655172414 2:0.7 3:-0.517543859649124 
-1 0:1 1:0.31896551724138 2:-0.78 3:-0.201754385964912 
-1 0:1 1:0.327586206896553 2:0.32 3:-0.359649122807017 
+1 0:1 1:0.620689655172414 2:-0.4 3:-0.350877192982456 
-1 0:1 1:0.224137931034484 2:-0.7 3:0.245614035087719 
+1 0:1 1:0.327586206896552 2:-0.32 3:0.0701754385964911 
+1 0:1 1:-0.163793103448276 2:0.74 3:-0.368421052631579 
-1 0:1 1:-0.267241379310344 2:0.3 3:0.184210526315789 
+1 0:1 1:-0.0172413793103451 2:-0.5 3:0.447368421052633 
+1 0:1 1:0.0344827586206902 2:-0.62 3:0.026315789473684 
-1 0:1 1:0.646551724137931 2:0.18 3:-0.701754385964913 
-1 0:1 1:0.163793103448276 2:0.22 3:0.0263157894736852 
+1 0:1 1:0.387931034482759 2:0.24 3:0.0614035087719301 
+1 0:1 1:-0.137931034482758 2:-0.1 3:0.0438596491228071 
-1 0:1 1:-0.327586206896552 2:-0.42 3:0.385964912280703 
-1 0:1 1:0.353448275862069 2:0.0200000000000003 3:-0.0614035087719301 
-1 0:1 1:0.560344827586207 2:-0.26 3:-0.271929824561404 
+1 0:1 1:0.706896551724138 2:0.6 3:-0.640350877192983 
-1 0:1 1:-0.155172413793103 2:0 3:0.280701754385965 
+1 0:1 1:-0.18103448275862 2:-0.64 3:0.42982456140351 
+1 0:1 1:0.00862068965517304 2:-0.18 3:0.0526315789473693 
+1 0:1 1:-0.025862068965517 2:0.08 3:0.192982456140351 
+1 0:1 1:0.474137931034483 2:-0.34 3:-0.298245614035088 
-1 0:1 1:-0.0431034482758621 2:-0.0600000000000001 3:0.043859649122807 
+1 0:1 1:0.387931034482759 2:0.6 3:-0.526315789473685 
+1 0:1 1:0.112068965517242 2:-0.0600000000000001 3:-0.192982456140351 
+1 0:1 1:0.120689655172414 2:0.28 3:-0.026315789473684 
+1 0:1 1:0.327586206896552 2:0.64 3:-0.692982456140352 
-1 0:1 1:-0.681034482758621 2:0.6 3:0.719298245614035 
-1 0:1 1:0.344827586206897 2:0.44 3:-0.298245614035088 
+1 0:1 1:0.362068965517242 2:-0.22 3:-0.219298245614035 
-1 0:1 1:-0.0862068965517242 2:-0.34 3:0.578947368421053 
+1 0:1 1:0.18103448275862 2:0.1 3:0.105263157894736 
-1 0:1 1:-0.0862068965517242 2:-0.5 3:0.596491228070176 
+1 0:1 1:0.5 2:0.2 3:-0.333333333333333 
+1 0:1 1:0.706896551724139 2:-0.0800000000000001 3:-0.307017543859649 
+1 0:1 1:0.275862068965518 2:0.0800000000000001 3:-0.298245614035088 
-1 0:1 1:0.387931034482759 2:-0.44 3:-0.324561403508772 
-1 0:1 1:0.474137931034483 2:-0.66 3:-0.166666666666667 
+1 0:1 1:0.189655172413793 2:-0.28 3:-0.280701754385965 
-1 0:1 1:0.0431034482758621 2:0.16 3:0.333333333333333 
+1 0:1 1:0.103448275862068 2:1 3:-0.18421052631579 
-1 0:1 1:-0.551724137931035 2:0.2 3:0.578947368421053 
-1 0:1 1:0.224137931034484 2:-0.56 3:0.228070175438597 
-1 0:1 1:0.0948275862068961 2:-0.42 3:0.307017543859649 
-1 0:1 1:-0.344827586206897 2:0.48 3:0.219298245614035 
+1 0:1 1:0.379310344827586 2:0.28 3:-0.280701754385965 
+1 0:1 1:-0.0344827586206902 2:-0.5 3:0.394736842105263 
+1 0:1 1:-0.00862068965517304 2:0.22 3:0.236842105263157 
-1 0:1 1:-0.310344827586207 2:-0.0400000000000002 3:0.026315789473684 
-1 0:1 1:0.250000000000001 2:-0.68 3:0.236842105263158 
-1 0:1 1:0.577586206896552 2:0.34 3:-0.280701754385964 
+1 0:1 1:-0.870689655172414 2:-0.0199999999999999 3:0.385964912280703 
+1 0:1 1:-0.293103448275863 2:0.58 3:0.052631578947368 
+1 0:1 1:0 2:-0.42 3:-0.245614035087719 
-1 0:1 1:-0.448275862068966 2:0.0199999999999999 3:0.263157894736842 
-1 0:1 1:-0.379310344827587 2:-0.24 3:0.37719298245614 
-1 0:1 1:0.232758620689654 2:0.6 3:-0.324561403508772 
+1 0:1 1:-0.103448275862069 2:0.44 3:0.140350877192982 
+1 0:1 1:-0.163793103448275 2:0.22 3:-0.157894736842105 
+1 0:1 1:-0.336206896551725 2:0.0600000000000001 3:0.456140350877194 
+1 0:1 1:0.543103448275862 2:-0.16 3:-0.447368421052633 
-1 0:1 1:0.232758620689656 2:-0.44 3:-0.043859649122807 
+1 0:1 1:0.00862068965517193 2:-0.58 3:0.254385964912281 
+1 0:1 1:0.198275862068965 2:-0.38 3:-0.131578947368421 
+1 0:1 1:-0.405172413793104 2:-0.5 3:0.210526315789473 
+1 0:1 1:-0.327586206896552 2:-0.18 3:-0.0614035087719301 
-1 0:1 1:-0.112068965517241 2:-0.18 3:0.342105263157894 
+1 0:1 1:0.129310344827586 2:-0.18 3:-0.359649122807017 
+1 0:1 1:0.0258620689655169 2:-0.4 3:-0.25438596491228 
-1 0:1 1:0.189655172413793 2:0.52 3:-0.096491228070175 
+1 0:1 1:-0.0689655172413792 2:-0.3 3:0.412280701754387 
-1 0:1 1:-0.232758620689656 2:0.24 3:0.0964912280701763 
-1 0:1 1:-0.129310344827586 2:0.5 3:-0.18421052631579 
-1 0:1 1:-0.405172413793104 2:0.68 3:0.175438596491228 
+1 0:1 1:0.71551724137931 2:0.22 3:-0.736842105263159 
+1 0:1 1:-0.301724137931035 2:-0.56 3:0.482456140350878 
-1 0:1 1:0.594827586206896 2:-0.0600000000000001 3:-0.0877192982456141 
-1 0:1 1:-0.00862068965517193 2:0.38 3:0.0964912280701763 
-1 0:1 1:-0.0689655172413803 2:-0.12 3:0.175438596491228 
+1 0:1 1:0.0689655172413792 2:-0.0200000000000003 3:-0.280701754385965 
-1 0:1 1:0.336206896551725 2:-0.52 3:-0.096491228070175 
-1 0:1 1:-0.387931034482759 2:0.44 3:0.324561403508772 
+1 0:1 1:-0.21551724137931 2:0.26 3:0.289473684210526 
+1 0:1 1:0.413793103448276 2:0.62 3:-0.657894736842106 
+1 0:1 1:0.21551724137931 2:0.22 3:0.096491228070175 
-1 0:1 1:0.224137931034484 2:-0.36 3:-0.508771929824561 
+1 0:1 1:-0.189655172413793 2:-0.0999999999999999 3:0.342105263157894 
+1 0:1 1:-0.594827586206896 2:0.0600000000000001 3:0.0877192982456141 
+1 0:1 1:0.275862068965518 2:0.0800000000000001 3:-0.543859649122806 
+1 0:1 1:0.00862068965517193 2:-0.42 3:0.236842105263158 
-1 0:1 1:0.017241379310345 2:0.26 3:-0.271929824561403 
-1 0:1 1:0.0431034482758621 2:-0.18 3:-0.0175438596491231 
+1 0:1 1:0.275862068965518 2:-0.84 3:-0.052631578947368 
+1 0:1 1:0.0862068965517242 2:0.1 3:0.026315789473684 
+1 0:1 1:-0.387931034482759 2:-0.36 3:0.43859649122807 
-1 0:1 1:0.051724137931034 2:-0.0399999999999999 3:0.105263157894737 
+1 0:1 1:0.336206896551725 2:-0.34 3:-0.342105263157894 
+1 0:1 1:0.232758620689655 2:0.26 3:-0.00877192982456093 
+1 0:1 1:0 2:-0.0400000000000002 3:-0.289473684210526 
+1 0:1 1:-0.18103448275862 2:0.18 3:-0.219298245614035 
