-1 0:1 1:0.206896551724138 2:0.288135593220339 3:0.600000000000001 4:-0.207792207792208 5:-0.44 6:-0.157894736842105 7:0.4 8:0.126582278481013 9:-0.207792207792207 10:-0.439999999999999 11:0.623376623376623 12:-0.307017543859649 
+1 0:1 1:0.0775862068965523 2:0.355932203389831 3:0.256 4:-0.038961038961039 5:0.0399999999999999 6:0.0701754385964913 7:-0.2 8:0.0759493670886087 9:-0.0389610389610386 10:0.0399999999999991 11:-0.272727272727273 12:-0.228070175438596 
+1 0:1 1:-0.112068965517242 2:0.474576271186441 3:0.136 4:-0.0779220779220779 5:-0.2 6:-0.263157894736842 7:0.74 8:0.886075949367088 9:-0.0779220779220771 10:-0.2 11:0.441558441558441 12:-0.570175438596492 
+1 0:1 1:-0.0172413793103451 2:-0.0169491525423728 3:0.624 4:0.25974025974026 5:0.28 6:0.631578947368421 7:-0.26 8:0.0126582278481023 9:0.25974025974026 10:0.28 11:0.376623376623376 12:0 
-1 0:1 1:-0.267241379310346 2:-0.355932203389831 3:-0.28 4:-0.0909090909090909 5:-0.48 6:-0.0350877192982459 7:0.26 8:-0.0506329113924058 9:-0.0909090909090913 10:-0.48 11:-0.0909090909090913 12:0.307017543859649 
+1 0:1 1:-0.396551724137931 2:-0.169491525423729 3:-0.144 4:-0.168831168831169 5:-0.48 6:0.280701754385965 7:0.16 8:0.303797468354431 9:-0.168831168831168 10:-0.48 11:-0.207792207792208 12:0.18421052631579 
-1 0:1 1:0.387931034482759 2:0.254237288135594 3:-0.152 4:-0.233766233766234 5:0.02 6:-0.368421052631579 7:0.36 8:0.0759493670886068 9:-0.220779220779221 10:0.0200000000000002 11:0.389610389610389 12:-0.43859649122807 
-1 0:1 1:0.103448275862069 2:0.35593220338983 3:-0.28 4:0.61038961038961 5:0.28 6:0.298245614035088 7:-0.44 8:-0.0886075949367091 9:0.61038961038961 10:0.28 11:-0.0519480519480527 12:-0.140350877192982 
-1 0:1 1:0.310344827586208 2:0.237288135593221 3:0.176 4:0.0779220779220779 5:-0.2 6:0.105263157894737 7:0.38 8:-0.0759493670886068 9:0.0779220779220772 10:-0.2 11:-0.337662337662338 12:-0.368421052631578 
+1 0:1 1:0 2:-0.237288135593221 3:-0.0560000000000001 4:-0.766233766233766 5:-0.24 6:-0.473684210526316 7:0.42 8:-0.253164556962025 9:-0.766233766233765 10:-0.240000000000001 11:0.545454545454546 12:0.245614035087719 
-1 0:1 1:0.327586206896552 2:0.389830508474577 3:-0.0960000000000001 4:0.025974025974026 5:0.28 6:-0.385964912280702 7:0.64 8:0.354430379746835 9:0.0259740259740263 10:0.28 11:0.363636363636364 12:-0.692982456140352 
+1 0:1 1:-0.413793103448276 2:0.0677966101694917 3:-0.208 4:-0.220779220779221 5:0.34 6:-0.0877192982456141 7:-0.12 8:0.303797468354429 9:-0.220779220779221 10:0.340000000000001 11:-0.298701298701298 12:0.307017543859649 
-1 0:1 1:-0.310344827586208 2:-0.508474576271187 3:-0.104 4:-0.168831168831169 5:-0.54 6:0.0175438596491228 7:0.12 8:-0.0126582278481005 9:-0.168831168831168 10:-0.540000000000001 11:-0.12987012987013 12:0.456140350877194 
-1 0:1 1:-0.0862068965517242 2:-0.0338983050847458 3:0.0640000000000001 4:0.168831168831169 5:0.2 6:-0.350877192982456 7:-0.1 8:0.164556962025316 9:0.168831168831168 10:0.2 11:-0.168831168831168 12:-0.026315789473684 
+1 0:1 1:0 2:0.288135593220339 3:0.4 4:0.142857142857143 5:-0.0800000000000001 6:-0.12280701754386 7:-0.0400000000000002 8:0.354430379746835 9:0.142857142857144 10:-0.0799999999999996 11:0.0909090909090904 12:-0.289473684210526 
-1 0:1 1:-0.422413793103449 2:-0.237288135593221 3:0.416 4:-0.0649350649350649 5:0.4 6:-0.666666666666667 7:-0.22 8:0.113924050632912 9:-0.064935064935065 10:0.4 11:-0.298701298701298 12:0.307017543859649 
+1 0:1 1:-0.336206896551725 2:-0.40677966101695 3:0.248 4:-0.597402597402597 5:-0.34 6:0.192982456140351 7:0.34 8:-0.0126582278481005 9:-0.597402597402598 10:-0.340000000000001 11:0.389610389610389 12:0.342105263157894 
-1 0:1 1:-0.163793103448276 2:0.11864406779661 3:-0.136 4:0.337662337662338 5:0.22 6:-0.0526315789473686 7:-0.5 8:0.164556962025316 9:0.337662337662339 10:0.22 11:-0.103896103896104 12:0.0877192982456141 
+1 0:1 1:0.189655172413793 2:0.135593220338983 3:-0.336 4:0.454545454545454 5:0.4 6:0.12280701754386 7:-0.38 8:-0.0506329113924058 9:0.454545454545454 10:0.4 11:0.194805194805195 12:-0.0614035087719301 
-1 0:1 1:-0.35344827586207 2:-0.355932203389831 3:-0.0720000000000001 4:-0.0389610389610389 5:-0.02 6:-0.0526315789473686 7:-0.4 8:-0.316455696202531 9:-0.0389610389610404 10:-0.0200000000000003 11:-0.714285714285714 12:0.570175438596492 
+1 0:1 1:0.017241379310345 2:0.0169491525423728 3:0.24 4:-0.766233766233766 5:-0.36 6:-0.403508771929825 7:0.68 8:0.113924050632912 9:-0.766233766233765 10:-0.359999999999999 11:0.844155844155844 12:-0.026315789473684 
-1 0:1 1:-0.025862068965517 2:0.152542372881356 3:-0.264 4:0.220779220779221 5:0 6:-0.192982456140351 7:0.16 8:0.379746835443038 9:0.220779220779221 10:0 11:-0.389610389610389 12:-0.236842105263158 
+1 0:1 1:-0.120689655172414 2:-0.0338983050847459 3:0.0800000000000001 4:0.168831168831169 5:0.46 6:0.0526315789473686 7:-0.28 8:0.189873417721519 9:0.168831168831168 10:0.460000000000001 11:0.220779220779221 12:0.026315789473684 
-1 0:1 1:0.129310344827586 2:0.491525423728813 3:-0.336 4:0.402597402597403 5:0.28 6:0.0877192982456141 7:-0.18 8:0.215189873417722 9:0.402597402597404 10:0.28 11:0.0129870129870123 12:-0.359649122807017 
+1 0:1 1:-0.146551724137931 2:-0.355932203389831 3:-0.640000000000001 4:0.0779220779220779 5:-0.18 6:0.105263157894737 7:0.34 8:-0.0253164556962029 9:0.0779220779220772 10:-0.18 11:-0.272727272727273 12:0.236842105263158 
-1 0:1 1:-0.051724137931034 2:-0.254237288135593 3:-0.424 4:-0.207792207792208 5:-0.04 6:-0.315789473684211 7:0 8:-0.177215189873418 9:-0.194805194805195 10:-0.0400000000000006 11:-0.298701298701299 12:0.201754385964912 
-1 0:1 1:0.0344827586206888 2:-0.0677966101694916 3:0.12 4:-0.51948051948052 5:-0.44 6:-0.280701754385965 7:0.66 8:0.0632911392405063 9:-0.519480519480519 10:-0.440000000000001 11:0.0259740259740263 12:-0.0614035087719301 
-1 0:1 1:0.0344827586206889 2:-0.389830508474577 3:-0.2 4:0.051948051948052 5:-0.72 6:-0.0526315789473686 7:0.2 8:-0.303797468354429 9:0.0519480519480526 10:-0.72 11:-0.103896103896104 12:0.18421052631579 
-1 0:1 1:-0.525862068965517 2:-0.0508474576271187 3:-0.359999999999999 4:-0.428571428571429 5:-0.94 6:-0.473684210526316 7:0.66 8:0.696202531645569 9:-0.428571428571428 10:-0.939999999999999 11:-0.480519480519481 12:0 
+1 0:1 1:-0.405172413793104 2:-0.220338983050848 3:-0.328 4:-0.350649350649351 5:-0.38 6:-0.210526315789474 7:0.68 8:0.278481012658228 9:-0.350649350649351 10:-0.380000000000001 11:-0.0909090909090904 12:0.175438596491228 
+1 0:1 1:0.025862068965517 2:0.169491525423729 3:0.168 4:-0.142857142857143 5:0.4 6:-0.526315789473684 7:0.0199999999999999 8:0.202531645569621 9:-0.142857142857142 10:0.4 11:0.376623376623377 12:-0.131578947368421 
+1 0:1 1:0.336206896551725 2:0.203389830508475 3:0.256 4:0.467532467532468 5:0.4 6:-0.0175438596491226 7:0.1 8:0.113924050632912 9:0.467532467532467 10:0.4 11:0.337662337662338 12:-0.473684210526317 
-1 0:1 1:-0.18103448275862 2:0.186440677966102 3:0.28 4:0.207792207792208 5:-0.32 6:0.157894736842105 7:-0.1 8:0.341772151898734 9:0.207792207792209 10:-0.319999999999999 11:-0.103896103896104 12:-0.105263157894736 
+1 0:1 1:0.422413793103449 2:0.237288135593221 3:-0.416 4:0.0649350649350649 5:-0.4 6:0.666666666666667 7:0.22 8:-0.113924050632912 9:0.064935064935065 10:-0.4 11:0.298701298701298 12:-0.307017543859649 
+1 0:1 1:0.500000000000001 2:0.237288135593221 3:0.2 4:0.207792207792208 5:0.24 6:0.0701754385964914 7:0.32 8:-0.10126582278481 9:0.207792207792207 10:0.240000000000001 11:0.0259740259740264 12:-0.447368421052631 
-1 0:1 1:0.112068965517242 2:-0.474576271186441 3:-0.136 4:0.0779220779220779 5:0.2 6:0.263157894736842 7:-0.74 8:-0.886075949367088 9:0.0779220779220771 10:0.2 11:-0.441558441558441 12:0.570175438596492 
-1 0:1 1:0.405172413793104 2:0.220338983050848 3:0.328 4:0.350649350649351 5:0.38 6:0.210526315789474 7:-0.68 8:-0.278481012658228 9:0.350649350649351 10:0.380000000000001 11:0.0909090909090904 12:-0.175438596491228 
-1 0:1 1:0.293103448275863 2:0.457627118644068 3:-0.216 4:0.545454545454545 5:0.72 6:-0.105263157894737 7:-0.0199999999999999 8:0.291139240506329 9:0.545454545454546 10:0.72 11:0.337662337662338 12:-0.631578947368422 
-1 0:1 1:-0.362068965517242 2:-0.101694915254237 3:-0.208 4:-0.298701298701299 5:-0.28 6:0.0350877192982455 7:0.22 8:0.316455696202531 9:-0.298701298701298 10:-0.28 11:-0.415584415584416 12:0.219298245614035 
+1 0:1 1:0.310344827586208 2:0.474576271186441 3:0.432 4:-0.207792207792208 5:0.46 6:0.192982456140351 7:-0.44 8:-0.0632911392405063 9:-0.207792207792207 10:0.459999999999999 11:0.155844155844156 12:-0.324561403508772 
-1 0:1 1:-0.017241379310345 2:-0.0169491525423728 3:-0.24 4:0.766233766233766 5:0.36 6:0.403508771929825 7:-0.68 8:-0.113924050632912 9:0.766233766233765 10:0.359999999999999 11:-0.844155844155844 12:0.026315789473684 
-1 0:1 1:-0.258620689655172 2:-0.271186440677966 3:-0.0880000000000001 4:0.532467532467532 5:0.4 6:-0.0175438596491228 7:-0.62 8:-0.139240506329115 9:0.532467532467531 10:0.4 11:-0.480519480519481 12:0.37719298245614 
+1 0:1 1:0.275862068965518 2:-0.186440677966102 3:0.208 4:0.0649350649350649 5:-0.22 6:0.350877192982456 7:-0.28 8:-0.759493670886075 9:0.0519480519480527 10:-0.22 11:-0.103896103896103 12:0.289473684210526 
+1 0:1 1:0.275862068965518 2:0.305084745762712 3:0.16 4:0.116883116883117 5:0.56 6:-0.0350877192982455 7:-0.16 8:-0.0506329113924058 9:0.116883116883116 10:0.560000000000001 11:0.181818181818182 12:-0.210526315789474 
+1 0:1 1:-0.301724137931035 2:-0.372881355932204 3:0.24 4:0 5:0 6:0.666666666666667 7:-0.56 8:-0.139240506329113 9:0 10:0 11:0.22077922077922 12:0.482456140350878 
-1 0:1 1:-0.301724137931035 2:-0.322033898305085 3:-0.0720000000000001 4:0.0519480519480519 5:-0.12 6:0.456140350877193 7:-0.72 8:-0.189873417721519 9:0.0519480519480526 10:-0.12 11:-0.0909090909090913 12:0.500000000000001 
+1 0:1 1:-0.413793103448277 2:0.237288135593221 3:-0.04 4:-0.103896103896104 5:0 6:-0.192982456140351 7:0.18 8:0.822784810126582 9:-0.103896103896103 10:0 11:0.519480519480519 12:-0.149122807017544 
+1 0:1 1:0.112068965517241 2:-0.0508474576271187 3:-0.312 4:-0.350649350649351 5:-0.54 6:-0.333333333333333 7:0.52 8:0.126582278481013 9:-0.337662337662337 10:-0.540000000000001 11:0.207792207792207 12:-0.228070175438596 
+1 0:1 1:0.275862068965518 2:0.169491525423729 3:-0.4 4:0.285714285714286 5:0.2 6:0.473684210526316 7:-0.28 8:-0.215189873417722 9:0.285714285714286 10:0.2 11:0.363636363636363 12:-0.0350877192982461 
-1 0:1 1:-0.681034482758621 2:-0.813559322033898 3:-0.2 4:-0.597402597402597 5:-0.46 6:-0.175438596491228 7:0.6 8:0.0632911392405063 9:-0.597402597402598 10:-0.460000000000001 11:-0.35064935064935 12:0.719298245614035 
-1 0:1 1:-0.362068965517242 2:-0.271186440677966 3:-0.0880000000000001 4:-0.545454545454545 5:-0.56 6:-0.0526315789473686 7:-0.02 8:-0.278481012658228 9:-0.545454545454546 10:-0.56 11:-0.610389610389611 12:0.666666666666668 
-1 0:1 1:-0.198275862068965 2:0.11864406779661 3:-0.6 4:-0.220779220779221 5:-0.6 6:-0.578947368421053 7:0.64 8:0.443037974683544 9:-0.220779220779221 10:-0.6 11:-0.818181818181818 12:-0.175438596491228 
+1 0:1 1:0.0431034482758621 2:-0.0847457627118644 3:-0.28 4:0.636363636363636 5:-0.26 6:0.350877192982456 7:0.0600000000000001 8:-0.0126582278481023 9:0.636363636363635 10:-0.259999999999999 11:-0.493506493506494 12:-0.043859649122807 
-1 0:1 1:-0.120689655172413 2:0.152542372881356 3:-0.28 4:-0.142857142857143 5:-0.34 6:-0.0526315789473686 7:0.34 8:0.253164556962025 9:-0.142857142857142 10:-0.340000000000001 11:-0.0389610389610385 12:-0.096491228070175 
-1 0:1 1:-0.21551724137931 2:-0.355932203389831 3:-0.424 4:-0.376623376623377 5:-0.16 6:0.12280701754386 7:0.26 8:-0.0379746835443034 9:-0.376623376623377 10:-0.160000000000001 11:-0.103896103896103 12:0.289473684210526 
-1 0:1 1:-0.025862068965517 2:-0.135593220338983 3:0.0560000000000001 4:0.207792207792208 5:0 6:0.210526315789474 7:-0.26 8:-0.303797468354431 9:0.207792207792207 10:0 11:-0.0649350649350649 12:0.219298245614035 
-1 0:1 1:-0.017241379310345 2:-0.254237288135593 3:-0.296 4:0 5:0.12 6:-0.0701754385964913 7:-0.26 8:-0.367088607594937 9:0 10:0.119999999999999 11:-0.298701298701298 12:0.271929824561403 
-1 0:1 1:0.241379310344829 2:0.11864406779661 3:0.176 4:-0.116883116883117 5:0.42 6:0.298245614035088 7:-0.42 8:-0.278481012658228 9:-0.116883116883118 10:0.42 11:0.168831168831169 12:-0.043859649122807 
-1 0:1 1:-0.85344827586207 2:-0.237288135593221 3:-0.0880000000000001 4:-0.012987012987013 5:0.34 6:-0.456140350877193 7:-0.42 8:0.468354430379747 9:-0.0129870129870123 10:0.339999999999999 11:0.142857142857143 12:0.578947368421053 
+1 0:1 1:0.327586206896553 2:0.288135593220339 3:0.24 4:-0.0389610389610389 5:-0.14 6:-0.0175438596491226 7:0.48 8:0.151898734177215 9:-0.0389610389610386 10:-0.139999999999999 11:0.441558441558441 12:-0.37719298245614 
+1 0:1 1:0.21551724137931 2:0.0677966101694916 3:-0.144 4:0.207792207792208 5:0.6 6:0.0350877192982458 7:-0.14 8:0.139240506329113 9:0.207792207792209 10:0.6 11:0.636363636363637 12:-0.271929824561404 
+1 0:1 1:0.0172413793103439 2:0.237288135593221 3:0.464 4:-0.155844155844156 5:0.06 6:-0.403508771929824 7:0.38 8:0.468354430379747 9:-0.155844155844156 10:0.0600000000000008 11:0.0779220779220781 12:-0.421052631578947 
+1 0:1 1:0.0775862068965523 2:0.338983050847458 3:-0.112 4:-0.402597402597403 5:0.18 6:-0.280701754385965 7:0.32 8:0.430379746835442 9:-0.389610389610389 10:0.18 11:0.311688311688311 12:-0.412280701754387 
+1 0:1 1:0.362068965517242 2:0.254237288135593 3:0.016 4:0.376623376623377 5:0.34 6:0 7:-0.5 8:-0.367088607594937 9:0.376623376623377 10:0.340000000000001 11:0 12:-0.105263157894736 
+1 0:1 1:0.310344827586207 2:0.203389830508475 3:0.648 4:0.0389610389610389 5:0.28 6:0.157894736842105 7:0.14 8:-0.227848101265822 9:0.0389610389610386 10:0.28 11:0.545454545454546 12:-0.245614035087719 
-1 0:1 1:-0.077586206896551 2:0.322033898305085 3:-0.264 4:0.298701298701299 5:0.62 6:-0.315789473684211 7:-0.18 8:0.367088607594935 9:0.298701298701298 10:0.62 11:-0.272727272727272 12:-0.149122807017544 
+1 0:1 1:0.146551724137931 2:0.0677966101694917 3:-0.016 4:-0.220779220779221 5:-0.6 6:0.192982456140351 7:0.5 8:0.10126582278481 9:-0.220779220779221 10:-0.6 11:-0.064935064935065 12:-0.271929824561403 
-1 0:1 1:0.318965517241379 2:-0.11864406779661 3:-0.640000000000001 4:0.012987012987013 5:0.42 6:-0.157894736842105 7:0.2 8:-0.468354430379747 9:0.0129870129870122 10:0.419999999999999 11:-0.168831168831168 12:0.0614035087719289 
+1 0:1 1:-0.068965517241379 2:0.186440677966102 3:-0.304 4:0 5:0.16 6:-0.157894736842105 7:-0.0399999999999999 8:0.0126582278481005 9:0 10:0.160000000000001 11:-0.272727272727273 12:0.0350877192982462 
+1 0:1 1:0.344827586206897 2:0.0847457627118644 3:0.232 4:-0.155844155844156 5:-0.26 6:0.140350877192983 7:-0.24 8:-0.367088607594935 9:-0.155844155844154 10:-0.260000000000001 11:0.0519480519480517 12:-0.140350877192982 
-1 0:1 1:-0.431034482758621 2:-0.169491525423729 3:0.032 4:-0.922077922077922 5:-0.44 6:-0.228070175438597 7:0.7 8:0.265822784810127 9:-0.922077922077921 10:-0.440000000000001 11:0.675324675324675 12:0.236842105263158 
-1 0:1 1:-0.870689655172414 2:-0.203389830508475 3:0.104 4:-0.207792207792208 5:-0.6 6:0.070175438596491 7:0.22 8:0.746835443037975 9:-0.207792207792207 10:-0.6 11:-0.168831168831169 12:0.298245614035088 
-1 0:1 1:-0.793103448275863 2:-0.559322033898305 3:0.28 4:-0.233766233766234 5:-0.08 6:-0.0701754385964913 7:0.0999999999999999 8:0.468354430379747 9:-0.233766233766235 10:-0.0799999999999997 11:-0.298701298701298 12:0.508771929824562 
+1 0:1 1:-0.301724137931035 2:0.0508474576271187 3:0.224 4:0.116883116883117 5:0.12 6:-0.0526315789473686 7:-0.6 8:0.291139240506329 9:0.116883116883118 10:0.12 11:0.168831168831168 12:0.131578947368421 
+1 0:1 1:-0.293103448275863 2:-0.288135593220339 3:0.0960000000000001 4:-0.298701298701299 5:-0.44 6:0.192982456140351 7:0.26 8:0.303797468354431 9:-0.298701298701298 10:-0.440000000000001 11:-0.142857142857143 12:0.184210526315789 
-1 0:1 1:0.379310344827586 2:0.169491525423729 3:0.0560000000000001 4:-0.337662337662338 5:-0.18 6:-0.140350877192983 7:0.12 8:-0.164556962025316 9:-0.337662337662337 10:-0.18 11:0.207792207792208 12:-0.263157894736842 
+1 0:1 1:0.198275862068965 2:-0.11864406779661 3:0.6 4:0.220779220779221 5:0.6 6:0.578947368421053 7:-0.64 8:-0.443037974683544 9:0.220779220779221 10:0.6 11:0.818181818181818 12:0.175438596491228 
+1 0:1 1:0.439655172413793 2:0.508474576271187 3:0.272 4:-0.025974025974026 5:0.06 6:-0.0526315789473683 7:0.36 8:0.253164556962025 9:-0.0259740259740263 10:0.0600000000000008 11:0.688311688311689 12:-0.640350877192983 
+1 0:1 1:0.0258620689655169 2:0.322033898305085 3:0.12 4:0.584415584415585 5:0.48 6:0.105263157894737 7:-0.4 8:0.278481012658228 9:0.584415584415584 10:0.480000000000001 11:-0.220779220779221 12:-0.25438596491228 
-1 0:1 1:-0.129310344827586 2:-0.288135593220339 3:-0.216 4:0.220779220779221 5:0.58 6:0.157894736842105 7:-0.72 8:-0.316455696202531 9:0.220779220779219 10:0.58 11:-0.337662337662337 12:0.350877192982456 
-1 0:1 1:-0.327586206896552 2:-0.389830508474577 3:0.0960000000000001 4:-0.025974025974026 5:-0.28 6:0.385964912280702 7:-0.64 8:-0.354430379746835 9:-0.0259740259740263 10:-0.28 11:-0.363636363636364 12:0.692982456140352 
+1 0:1 1:-0.0431034482758621 2:-0.0677966101694916 3:-0.464 4:0.350649350649351 5:-0.1 6:-0.368421052631579 7:0.0199999999999999 8:0.0632911392405063 9:0.350649350649351 10:-0.1 11:-0.376623376623376 12:0.0350877192982462 
-1 0:1 1:-0.327586206896552 2:0.0677966101694917 3:0.456 4:-0.194805194805195 5:-0.32 6:-0.333333333333333 7:0.32 8:0.443037974683544 9:-0.194805194805195 10:-0.32 11:0.285714285714286 12:-0.0701754385964911 
-1 0:1 1:-0.387931034482759 2:-0.220338983050848 3:0.376 4:0.298701298701299 5:0.38 6:0.0526315789473686 7:-0.6 8:-0.177215189873416 9:0.285714285714286 10:0.38 11:-0.0779220779220772 12:0.526315789473685 
+1 0:1 1:0.0603448275862071 2:-0.101694915254237 3:0.288 4:-0.506493506493507 5:-0.7 6:0.157894736842105 7:0.42 8:0.0253164556962029 9:-0.506493506493505 10:-0.7 11:0.376623376623376 12:0.0614035087719301 
-1 0:1 1:0.750000000000001 2:0.88135593220339 3:0.0560000000000001 4:0.363636363636364 5:0.58 6:0.192982456140351 7:-0.58 8:-0.202531645569619 9:0.363636363636365 10:0.58 11:0.246753246753247 12:-0.710526315789474 
+1 0:1 1:-0.31896551724138 2:0.101694915254237 3:0.00800000000000001 4:-0.376623376623377 5:-0.66 6:0.0175438596491228 7:0.74 8:0.468354430379747 9:-0.376623376623375 10:-0.660000000000001 11:0.168831168831168 12:-0.0877192982456141 
-1 0:1 1:0.0344827586206902 2:0.0169491525423728 3:-0.04 4:0.363636363636364 5:-0.02 6:0.719298245614035 7:-0.38 8:-0.291139240506329 9:0.350649350649351 10:-0.0200000000000002 11:0.220779220779221 12:0.219298245614035 
+1 0:1 1:0.301724137931035 2:0.322033898305085 3:0.0720000000000001 4:-0.0519480519480519 5:0.12 6:-0.456140350877193 7:0.72 8:0.189873417721519 9:-0.0519480519480526 10:0.12 11:0.0909090909090913 12:-0.500000000000001 
-1 0:1 1:0.0344827586206902 2:0.23728813559322 3:-0.423999999999999 4:-0.38961038961039 5:-0.18 6:-0.456140350877193 7:0.4 8:0.303797468354429 9:-0.389610389610389 10:-0.18 11:-0.389610389610389 12:-0.271929824561404 
-1 0:1 1:-0.439655172413793 2:-0.474576271186441 3:-0.048 4:0.0909090909090909 5:0.34 6:-0.263157894736842 7:-0.6 8:-0.354430379746835 9:0.0909090909090912 10:0.339999999999999 11:-0.376623376623376 12:0.728070175438597 
+1 0:1 1:0.0258620689655169 2:-0.0677966101694917 3:0.256 4:-0.25974025974026 5:0.18 6:-0.403508771929825 7:0.3 8:0.0759493670886086 9:-0.25974025974026 10:0.18 11:0.74025974025974 12:-0.12280701754386 
+1 0:1 1:0.0172413793103439 2:-0.0677966101694916 3:-0.416 4:0.12987012987013 5:0.54 6:-0.210526315789474 7:-0.4 8:-0.177215189873418 9:0.12987012987013 10:0.539999999999999 11:0 12:0.19298245614035 
+1 0:1 1:-0.146551724137931 2:-0.355932203389831 3:-0.04 4:-0.415584415584416 5:-0.02 6:-0.0526315789473683 7:0.12 8:-0.0886075949367092 9:-0.415584415584416 10:-0.0200000000000004 11:0.441558441558442 12:0.280701754385964 
+1 0:1 1:0.310344827586208 2:0.0847457627118645 3:-0.368 4:0.012987012987013 5:-0.14 6:-0.298245614035088 7:0.0599999999999998 8:-0.265822784810128 9:0.0129870129870141 10:-0.140000000000001 11:-0.168831168831168 12:-0.0877192982456141 
+1 0:1 1:0.353448275862069 2:0.101694915254237 3:0.224 4:-0.415584415584416 5:-0.34 6:-0.210526315789474 7:0.2 8:-0.329113924050632 9:-0.415584415584416 10:-0.339999999999999 11:-0.0649350649350649 12:-0.070175438596491 
+1 0:1 1:0.129310344827586 2:0.203389830508475 3:-0.048 4:0.272727272727273 5:0.76 6:0.0877192982456141 7:-0.42 8:-0.0506329113924058 9:0.272727272727272 10:0.760000000000001 11:-0.0649350649350648 12:-0.0263157894736852 
-1 0:1 1:0.0775862068965522 2:0.288135593220339 3:0.784000000000001 4:0.155844155844156 5:0.0599999999999999 6:-0.12280701754386 7:-0.36 8:0.164556962025316 9:0.155844155844156 10:0.0600000000000009 11:0.376623376623376 12:-0.245614035087719 
-1 0:1 1:0.810344827586208 2:0.813559322033898 3:0.016 4:0.233766233766234 5:-0.04 6:0.140350877192983 7:0.16 8:-0.10126582278481 9:0.233766233766235 10:-0.0399999999999991 11:0.597402597402596 12:-0.780701754385965 
+1 0:1 1:-0.551724137931035 2:-0.322033898305085 3:-0.536 4:-0.194805194805195 5:-0.18 6:-0.0877192982456141 7:0.42 8:0.278481012658228 9:-0.194805194805195 10:-0.180000000000001 11:-0.337662337662338 12:0.359649122807017 
+1 0:1 1:-0.0344827586206902 2:0.474576271186441 3:0.52 4:-0.0649350649350649 5:-0.06 6:-0.263157894736842 7:0.42 8:0.696202531645569 9:-0.0649350649350649 10:-0.0599999999999994 11:0.727272727272727 12:-0.526315789473685 
+1 0:1 1:0.379310344827587 2:0.474576271186441 3:0.216 4:0.246753246753247 5:0.44 6:0.175438596491228 7:-0.36 8:-0.0506329113924058 9:0.246753246753247 10:0.440000000000001 11:-0.0129870129870132 12:-0.37719298245614 
+1 0:1 1:-0.431034482758621 2:0 3:-0.504 4:0.0519480519480519 5:-0.06 6:0.210526315789474 7:-0.2 8:0.354430379746835 9:0.0519480519480527 10:-0.0600000000000008 11:0.441558441558441 12:0.271929824561403 
-1 0:1 1:-0.275862068965518 2:-0.237288135593221 3:-0.856 4:-0.181818181818182 5:-0.64 6:-0.649122807017544 7:0.84 8:0.367088607594935 9:-0.181818181818182 10:-0.639999999999999 11:-0.545454545454546 12:0.052631578947368 
-1 0:1 1:-0.689655172413793 2:-0.203389830508475 3:-0.144 4:-0.272727272727273 5:0.18 6:-0.368421052631579 7:-0.2 8:0.253164556962025 9:-0.272727272727272 10:0.18 11:-0.168831168831168 12:0.605263157894738 
+1 0:1 1:-0.327586206896552 2:-0.169491525423729 3:0.24 4:-0.207792207792208 5:-0.34 6:0.105263157894737 7:0.0199999999999999 8:0.253164556962025 9:-0.207792207792207 10:-0.339999999999999 11:0.337662337662338 12:0.175438596491228 
+1 0:1 1:0.689655172413793 2:0.203389830508475 3:0 4:-0.376623376623377 5:-0.2 6:-0.228070175438597 7:0.34 8:-0.379746835443038 9:-0.376623376623375 10:-0.2 11:0.350649350649351 12:-0.368421052631579 
-1 0:1 1:0.327586206896552 2:0.220338983050848 3:0.024 4:-0.220779220779221 5:0 6:-0.473684210526316 7:0.4 8:-0.240506329113925 9:-0.220779220779221 10:0 11:0.168831168831169 12:-0.245614035087719 
-1 0:1 1:-0.793103448275863 2:-0.796610169491525 3:0.224 4:-1 5:-0.32 6:-0.543859649122807 7:0.52 8:0.215189873417722 9:-1 10:-0.32 11:0.246753246753247 12:0.754385964912281 
+1 0:1 1:0.31896551724138 2:-0.101694915254237 3:-0.00800000000000001 4:0.376623376623377 5:0.66 6:-0.0175438596491228 7:-0.74 8:-0.468354430379747 9:0.376623376623375 10:0.660000000000001 11:-0.168831168831168 12:0.0877192982456141 
-1 0:1 1:0.025862068965517 2:0.0169491525423729 3:0.144 4:0.025974025974026 5:0.28 6:0.280701754385965 7:0.0800000000000001 8:0.215189873417722 9:0.0259740259740263 10:0.28 11:0.584415584415584 12:-0.210526315789474 
-1 0:1 1:0.344827586206897 2:0.11864406779661 3:-0.0960000000000001 4:0.220779220779221 5:-0.18 6:-0.0701754385964913 7:0.08 8:-0.291139240506329 9:0.220779220779221 10:-0.18 11:0.0259740259740254 12:-0.271929824561403 
+1 0:1 1:0.129310344827586 2:0.288135593220339 3:0.216 4:-0.220779220779221 5:-0.58 6:-0.157894736842105 7:0.72 8:0.316455696202531 9:-0.220779220779219 10:-0.58 11:0.337662337662337 12:-0.350877192982456 
-1 0:1 1:-0.362068965517242 2:-0.254237288135593 3:-0.016 4:-0.376623376623377 5:-0.34 6:0 7:0.5 8:0.367088607594937 9:-0.376623376623377 10:-0.340000000000001 11:0 12:0.105263157894736 
+1 0:1 1:0.336206896551725 2:0.338983050847458 3:-0.168 4:0.805194805194805 5:0.38 6:0.456140350877193 7:-0.28 8:0.202531645569619 9:0.805194805194805 10:0.38 11:-0.12987012987013 12:-0.543859649122808 
+1 0:1 1:-0.189655172413793 2:-0.135593220338983 3:0.336 4:-0.454545454545454 5:-0.4 6:-0.12280701754386 7:0.38 8:0.0506329113924058 9:-0.454545454545454 10:-0.4 11:-0.194805194805195 12:0.0614035087719301 
+1 0:1 1:-0.655172413793103 2:-0.355932203389831 3:-0.184 4:0.181818181818182 5:0.06 6:0.385964912280702 7:-0.58 8:0.278481012658228 9:0.181818181818182 10:0.0599999999999994 11:-0.233766233766234 12:0.543859649122808 
-1 0:1 1:0.0344827586206902 2:0.220338983050848 3:-0.264 4:-0.103896103896104 5:0.2 6:-0.43859649122807 7:0.5 8:0.544303797468354 9:-0.0909090909090912 10:0.2 11:0.246753246753247 12:-0.394736842105263 
-1 0:1 1:0.413793103448277 2:-0.237288135593221 3:0.04 4:0.103896103896104 5:0 6:0.192982456140351 7:-0.18 8:-0.822784810126582 9:0.103896103896103 10:0 11:-0.519480519480519 12:0.149122807017544 
+1 0:1 1:0.336206896551724 2:0.0508474576271187 3:-0.0960000000000001 4:-0.038961038961039 5:-0.16 6:-0.298245614035088 7:0.3 8:-0.0506329113924039 9:-0.0389610389610385 10:-0.159999999999999 11:0.142857142857143 12:-0.245614035087719 
-1 0:1 1:-0.00862068965517193 2:0.169491525423729 3:-0.888 4:-0.0389610389610389 5:-0.28 6:-0.824561403508772 7:0.42 8:0.367088607594935 9:-0.0389610389610386 10:-0.28 11:-0.766233766233766 12:-0.236842105263158 
-1 0:1 1:-0.137931034482758 2:0.0847457627118645 3:0.168 4:-0.142857142857143 5:-0.04 6:0.0350877192982455 7:-0.38 8:0.0759493670886068 9:-0.142857142857142 10:-0.0399999999999991 11:-0.142857142857143 12:0.157894736842106 
+1 0:1 1:-0.474137931034483 2:0 3:0.472 4:0.025974025974026 5:0.28 6:-0.526315789473684 7:-0.18 8:0.341772151898734 9:0.0259740259740263 10:0.28 11:0.350649350649351 12:0.201754385964912 
+1 0:1 1:-0.206896551724137 2:-0.135593220338983 3:0.16 4:-0.376623376623377 5:-0.8 6:0.0526315789473683 7:0.3 8:0.0632911392405063 9:-0.376623376623375 10:-0.8 11:0.116883116883117 12:0.149122807017544 
-1 0:1 1:-0.568965517241379 2:-1 3:0.0640000000000001 4:-0.376623376623377 5:-0.34 6:-0.0350877192982458 7:-0.18 8:-0.468354430379747 9:-0.376623376623377 10:-0.340000000000001 11:-0.701298701298701 12:1 
+1 0:1 1:-0.275862068965518 2:-0.169491525423729 3:0.4 4:-0.285714285714286 5:-0.2 6:-0.473684210526316 7:0.28 8:0.215189873417722 9:-0.285714285714286 10:-0.2 11:-0.363636363636363 12:0.0350877192982461 
+1 0:1 1:-0.35344827586207 2:-0.186440677966102 3:-0.192 4:0.207792207792208 5:0.26 6:0.0350877192982455 7:-0.16 8:0.278481012658228 9:0.207792207792207 10:0.259999999999999 11:-0.519480519480519 12:0.122807017543859 
+1 0:1 1:-0.0431034482758621 2:0.0847457627118644 3:0.28 4:-0.636363636363636 5:0.26 6:-0.350877192982456 7:-0.0600000000000001 8:0.0126582278481023 9:-0.636363636363635 10:0.259999999999999 11:0.493506493506494 12:0.043859649122807 
+1 0:1 1:0.258620689655172 2:0.271186440677966 3:0.0880000000000001 4:-0.532467532467532 5:-0.4 6:0.0175438596491228 7:0.62 8:0.139240506329115 9:-0.532467532467531 10:-0.4 11:0.480519480519481 12:-0.37719298245614 
+1 0:1 1:-0.387931034482759 2:-0.254237288135594 3:0.152 4:0.233766233766234 5:-0.02 6:0.368421052631579 7:-0.36 8:-0.0759493670886068 9:0.220779220779221 10:-0.0200000000000002 11:-0.389610389610389 12:0.43859649122807 
+1 0:1 1:0.81896551724138 2:0.88135593220339 3:-0.16 4:0.818181818181818 5:0.56 6:0.175438596491228 7:-0.5 8:-0.189873417721519 9:0.818181818181819 10:0.560000000000001 11:0.0779220779220772 12:-0.763157894736842 
+1 0:1 1:0.301724137931035 2:-0.0508474576271187 3:-0.224 4:-0.116883116883117 5:-0.12 6:0.0526315789473686 7:0.6 8:-0.291139240506329 9:-0.116883116883118 10:-0.12 11:-0.168831168831168 12:-0.131578947368421 
-1 0:1 1:-0.21551724137931 2:-0.0677966101694916 3:0.144 4:-0.207792207792208 5:-0.6 6:-0.0350877192982458 7:0.14 8:-0.139240506329113 9:-0.207792207792209 10:-0.6 11:-0.636363636363637 12:0.271929824561404 
+1 0:1 1:-0.0689655172413791 2:0.152542372881356 3:0.624 4:0.337662337662338 5:0.9 6:0.508771929824561 7:-0.6 8:0 9:0.337662337662337 10:0.9 11:0.493506493506494 12:0.0877192982456141 
+1 0:1 1:-0.560344827586207 2:-0.288135593220339 3:0.0640000000000001 4:-0.038961038961039 5:-0.76 6:-0.0175438596491231 7:0.26 8:0.39240506329114 9:-0.0389610389610385 10:-0.759999999999999 11:-0.0909090909090913 12:0.271929824561404 
+1 0:1 1:-0.353448275862069 2:0 3:0.112 4:0.194805194805195 5:0.58 6:-0.385964912280702 7:-0.1 8:0.367088607594937 9:0.194805194805195 10:0.58 11:0.168831168831169 12:0.131578947368421 
+1 0:1 1:-0.198275862068967 2:-0.0508474576271186 3:0.288 4:-0.233766233766234 5:-0.32 6:0.0701754385964913 7:0.4 8:0.215189873417722 9:-0.233766233766233 10:-0.32 11:0.207792207792207 12:0.00877192982456088 
+1 0:1 1:0.0862068965517242 2:0.474576271186441 3:0.16 4:0.103896103896104 5:0.24 6:-0.122807017543859 7:0.5 8:0.721518987341772 9:0.103896103896104 10:0.240000000000001 11:0.545454545454546 12:-0.596491228070176 
-1 0:1 1:0.155172413793103 2:0.11864406779661 3:-0.296 4:0.0909090909090909 5:0.42 6:-0.596491228070176 7:0 8:0.240506329113923 9:0.103896103896103 10:0.42 11:-0.0259740259740263 12:-0.280701754385965 
+1 0:1 1:-0.051724137931034 2:0.237288135593221 3:0.0560000000000001 4:0.0909090909090909 5:-0.12 6:0.140350877192982 7:0.0399999999999999 8:0.227848101265822 9:0.0909090909090913 10:-0.12 11:0.649350649350649 12:-0.105263157894737 
+1 0:1 1:0.112068965517241 2:0.322033898305085 3:0.048 4:-0.181818181818182 5:-0.32 6:-0.421052631578947 7:0.78 8:0.215189873417722 9:-0.181818181818182 10:-0.32 11:-0.272727272727273 12:-0.421052631578947 
+1 0:1 1:0.146551724137931 2:0.101694915254237 3:0.208 4:-0.155844155844156 5:-0.2 6:-0.12280701754386 7:0.26 8:0 9:-0.155844155844156 10:-0.2 11:0.246753246753247 12:-0.184210526315789 
+1 0:1 1:0.344827586206897 2:0.0847457627118645 3:0.832 4:0.558441558441559 5:0.56 6:0.596491228070175 7:-0.48 8:-0.303797468354429 9:0.558441558441558 10:0.56 11:0.792207792207792 12:-0.219298245614035 
+1 0:1 1:0.310344827586208 2:0.508474576271187 3:0.104 4:0.168831168831169 5:0.54 6:-0.0175438596491228 7:-0.12 8:0.0126582278481005 9:0.168831168831168 10:0.540000000000001 11:0.12987012987013 12:-0.456140350877194 
-1 0:1 1:-0.189655172413792 2:0.11864406779661 3:0.456 4:-0.376623376623377 5:-0.92 6:0.12280701754386 7:0.56 8:0.430379746835443 9:-0.376623376623375 10:-0.919999999999999 11:0.415584415584415 12:-0.122807017543859 
+1 0:1 1:0.112068965517241 2:-0.0169491525423728 3:-0.424 4:0.402597402597403 5:-0.14 6:0.368421052631579 7:0.08 8:-0.151898734177215 9:0.402597402597402 10:-0.140000000000001 11:-0.597402597402597 12:-0.0350877192982462 
+1 0:1 1:-0.5 2:-0.169491525423729 3:0.304 4:0.168831168831169 5:-0.12 6:0 7:-0.2 8:0.139240506329113 9:0.168831168831168 10:-0.12 11:-0.0259740259740263 12:0.333333333333333 
-1 0:1 1:-0.982758620689656 2:-0.762711864406779 3:0.024 4:-0.480519480519481 5:-0.34 6:-0.228070175438597 7:0 8:0.354430379746835 9:-0.480519480519481 10:-0.340000000000001 11:-0.181818181818182 12:0.850877192982456 
+1 0:1 1:-0.224137931034484 2:-0.0677966101694916 3:0.144 4:-0.25974025974026 5:-0.6 6:-0.210526315789474 7:0.32 8:0 9:-0.25974025974026 10:-0.6 11:-0.376623376623377 12:0.219298245614035 
-1 0:1 1:-0.051724137931034 2:0.169491525423729 3:0 4:0.0779220779220779 5:0.62 6:-0.12280701754386 7:-0.34 8:-0.0126582278481023 9:0.0779220779220772 10:0.62 11:0.116883116883118 12:0.0877192982456141 
+1 0:1 1:-0.353448275862069 2:0.0508474576271186 3:-0.2 4:0.246753246753247 5:0.46 6:-0.596491228070176 7:-0.26 8:0.316455696202531 9:0.246753246753247 10:0.459999999999999 11:-0.142857142857142 12:0.149122807017544 
+1 0:1 1:-0.068965517241379 2:0 3:0.216 4:-0.454545454545455 5:0.0199999999999999 6:0.0175438596491231 7:-0.08 8:-0.0126582278481005 9:-0.454545454545454 10:0.0199999999999988 11:0.168831168831169 12:0.0526315789473679 
-1 0:1 1:0.0603448275862072 2:0.11864406779661 3:-0.312 4:-0.272727272727273 5:0.08 6:-0.456140350877193 7:0.18 8:0.11392405063291 9:-0.25974025974026 10:0.0799999999999997 11:0.324675324675325 12:-0.140350877192982 
+1 0:1 1:0.577586206896552 2:-0.0338983050847459 3:0.152 4:-0.0389610389610389 5:-0.5 6:0.175438596491228 7:0.34 8:-0.518987341772151 9:-0.0389610389610386 10:-0.5 11:-0.0129870129870132 12:-0.280701754385964 
-1 0:1 1:0.112068965517241 2:0.0169491525423728 3:-0.608 4:0.103896103896104 5:0.06 6:-0.771929824561403 7:0.0800000000000001 8:0.11392405063291 9:0.103896103896103 10:0.0600000000000009 11:-0.727272727272727 12:-0.140350877192983 
+1 0:1 1:0.172413793103448 2:0.237288135593221 3:0.152 4:-0.363636363636364 5:-0.2 6:-0.333333333333333 7:0.52 8:0.303797468354431 9:-0.363636363636363 10:-0.2 11:0.311688311688312 12:-0.403508771929824 
+1 0:1 1:0.137931034482758 2:-0.0847457627118645 3:-0.168 4:0.142857142857143 5:0.04 6:-0.0350877192982455 7:0.38 8:-0.0759493670886068 9:0.142857142857142 10:0.0399999999999991 11:0.142857142857143 12:-0.157894736842106 
+1 0:1 1:-0.327586206896553 2:-0.288135593220339 3:-0.24 4:0.0389610389610389 5:0.14 6:0.0175438596491226 7:-0.48 8:-0.151898734177215 9:0.0389610389610386 10:0.139999999999999 11:-0.441558441558441 12:0.37719298245614 
+1 0:1 1:-0.0689655172413791 2:0 3:-0.384 4:0.0389610389610389 5:-0.14 6:0.175438596491228 7:0.14 8:0.0506329113924058 9:0.0389610389610386 10:-0.140000000000001 11:-0.545454545454546 12:0.00877192982456221 
+1 0:1 1:0.0862068965517242 2:0.52542372881356 3:-0.152 4:0.155844155844156 5:0.12 6:-0.333333333333333 7:0.34 8:0.670886075949366 9:0.155844155844156 10:0.12 11:0.233766233766234 12:-0.578947368421053 
-1 0:1 1:0.793103448275863 2:0.559322033898305 3:-0.28 4:0.233766233766234 5:0.08 6:0.0701754385964913 7:-0.0999999999999999 8:-0.468354430379747 9:0.233766233766235 10:0.0799999999999997 11:0.298701298701298 12:-0.508771929824562 
-1 0:1 1:0.551724137931035 2:0.0338983050847458 3:0.136 4:0.0519480519480519 5:0.26 6:0.210526315789474 7:-0.38 8:-0.632911392405063 9:0.0519480519480508 10:0.260000000000001 11:0.246753246753247 12:-0.070175438596491 
+1 0:1 1:-0.336206896551725 2:-0.338983050847458 3:0.168 4:-0.805194805194805 5:-0.38 6:-0.456140350877193 7:0.28 8:-0.202531645569619 9:-0.805194805194805 10:-0.38 11:0.12987012987013 12:0.543859649122808 
+1 0:1 1:-0.0344827586206888 2:0.0677966101694916 3:-0.12 4:0.51948051948052 5:0.44 6:0.280701754385965 7:-0.66 8:-0.0632911392405063 9:0.519480519480519 10:0.440000000000001 11:-0.0259740259740263 12:0.0614035087719301 
+1 0:1 1:0.681034482758621 2:0.288135593220339 3:0.128 4:-0.233766233766234 5:-0.72 6:0.368421052631579 7:0.58 8:-0.215189873417722 9:-0.233766233766233 10:-0.719999999999999 11:0.272727272727272 12:-0.508771929824562 
-1 0:1 1:0.0948275862068961 2:0 3:0.016 4:0.363636363636364 5:0.34 6:-0.140350877192983 7:-0.18 8:0.126582278481013 9:0.363636363636363 10:0.340000000000001 11:-0.350649350649351 12:-0.140350877192983 
+1 0:1 1:0.310344827586208 2:0.271186440677966 3:0 4:0.727272727272727 5:0.22 6:0.385964912280702 7:-0.2 8:0.0379746835443034 9:0.727272727272726 10:0.22 11:-0.402597402597403 12:-0.350877192982456 
+1 0:1 1:-0.163793103448276 2:-0.0677966101694916 3:-0.688000000000001 4:-0.428571428571429 5:-0.16 6:-0.456140350877193 7:0.78 8:0.354430379746835 9:-0.415584415584416 10:-0.160000000000001 11:0.0519480519480517 12:-0.0789473684210532 
+1 0:1 1:-0.275862068965518 2:0.271186440677966 3:0.024 4:0.0649350649350649 5:0.3 6:-0.245614035087719 7:0.22 8:0.582278481012657 9:0.064935064935065 10:0.3 11:-0.0649350649350648 12:-0.140350877192983 
+1 0:1 1:0.439655172413793 2:0.406779661016949 3:-0.376 4:0.571428571428571 5:0.12 6:0 7:-0.14 8:-0.139240506329113 9:0.571428571428572 10:0.12 11:0.0909090909090903 12:-0.385964912280701 
-1 0:1 1:-0.344827586206897 2:-0.237288135593221 3:-0.64 4:-0.636363636363636 5:-0.62 6:-0.631578947368421 7:0.76 8:0.354430379746835 9:-0.636363636363637 10:-0.62 11:-0.376623376623376 12:0.105263157894736 
-1 0:1 1:-0.474137931034483 2:-0.288135593220339 3:-0.184 4:-0.116883116883117 5:-0.5 6:-0.228070175438597 7:0.66 8:0.417721518987341 9:-0.116883116883118 10:-0.5 11:0.0129870129870131 12:0.166666666666667 
+1 0:1 1:0.689655172413793 2:0.237288135593221 3:0.368 4:0.337662337662338 5:0.22 6:0.0526315789473686 7:-0.0399999999999998 8:-0.354430379746835 9:0.337662337662337 10:0.22 11:0.480519480519481 12:-0.517543859649124 
+1 0:1 1:0.517241379310345 2:0.220338983050848 3:-0.528 4:0.38961038961039 5:0.66 6:-0.350877192982456 7:-0.24 8:-0.329113924050634 9:0.389610389610389 10:0.659999999999999 11:-0.285714285714285 12:-0.236842105263158 
+1 0:1 1:-0.112068965517241 2:-0.322033898305085 3:-0.048 4:0.181818181818182 5:0.32 6:0.421052631578947 7:-0.78 8:-0.215189873417722 9:0.181818181818182 10:0.32 11:0.272727272727273 12:0.421052631578947 
-1 0:1 1:-0.0172413793103439 2:-0.237288135593221 3:-0.464 4:0.155844155844156 5:-0.06 6:0.403508771929824 7:-0.38 8:-0.468354430379747 9:0.155844155844156 10:-0.0600000000000008 11:-0.0779220779220781 12:0.421052631578947 
+1 0:1 1:0.663793103448276 2:0.0338983050847459 3:-0.168 4:-0.233766233766234 5:-0.6 6:0.298245614035088 7:0.32 8:-0.582278481012659 9:-0.233766233766233 10:-0.6 11:-0.0259740259740263 12:-0.236842105263158 
+1 0:1 1:-0.025862068965517 2:0.101694915254237 3:0.048 4:0.168831168831169 5:0.12 6:0.0175438596491229 7:0.32 8:0.430379746835443 9:0.168831168831168 10:0.12 11:-0.0779220779220781 12:-0.254385964912281 
+1 0:1 1:0.31896551724138 2:0.152542372881356 3:0.576 4:0.818181818181818 5:0.38 6:1 7:-0.78 8:-0.379746835443038 9:0.818181818181817 10:0.38 11:0.0519480519480517 12:-0.096491228070175 
+1 0:1 1:-0.637931034482758 2:-0.0677966101694916 3:0.248 4:-0.532467532467532 5:-1 6:0.298245614035088 7:0.58 8:0.582278481012659 9:-0.532467532467531 10:-1 11:0.246753246753246 12:0.140350877192983 
-1 0:1 1:-0.146551724137931 2:-0.101694915254237 3:-0.208 4:0.155844155844156 5:0.2 6:0.12280701754386 7:-0.26 8:0 9:0.155844155844156 10:0.2 11:-0.246753246753247 12:0.184210526315789 
+1 0:1 1:-0.181034482758622 2:0.11864406779661 3:-0.12 4:0.012987012987013 5:-0.24 6:-0.157894736842105 7:0.76 8:0.670886075949366 9:0.0129870129870123 10:-0.239999999999999 11:0.454545454545454 12:-0.289473684210526 
-1 0:1 1:-0.379310344827586 2:-0.11864406779661 3:-0.368 4:0.38961038961039 5:0.06 6:-0.0701754385964913 7:-0.28 8:0.11392405063291 9:0.389610389610389 10:0.0599999999999994 11:-0.519480519480519 12:0.280701754385965 
+1 0:1 1:0.465517241379311 2:0.0169491525423728 3:0.464 4:0.311688311688312 5:0.04 6:0.508771929824562 7:-0.18 8:-0.645569620253163 9:0.298701298701298 10:0.0400000000000006 11:-0.22077922077922 12:-0.052631578947368 
-1 0:1 1:-0.603448275862069 2:-0.525423728813559 3:0.584000000000001 4:-0.441558441558442 5:-0.4 6:-0.298245614035088 7:0.24 8:0.227848101265822 9:-0.441558441558442 10:-0.4 11:0.0259740259740263 12:0.473684210526315 
+1 0:1 1:-0.137931034482758 2:-0.203389830508475 3:-0.232 4:-0.285714285714286 5:0.04 6:0.157894736842105 7:-0.34 8:-0.278481012658228 9:-0.285714285714286 10:0.0400000000000005 11:-0.233766233766233 12:0.447368421052633 
-1 0:1 1:-0.051724137931034 2:0.338983050847458 3:-0.12 4:0.324675324675325 5:0.9 6:-0.0350877192982455 7:-0.0999999999999999 8:0.582278481012657 9:0.324675324675325 10:0.9 11:0.311688311688312 12:-0.359649122807019 
+1 0:1 1:0.129310344827586 2:0.0508474576271187 3:0.728000000000001 4:0.064935064935065 5:0.18 6:-0.263157894736842 7:-0.4 8:-0.0632911392405063 9:0.0649350649350648 10:0.180000000000001 11:-0.272727272727273 12:-0.140350877192982 
+1 0:1 1:-0.137931034482759 2:-0.288135593220339 3:-0.216 4:0.168831168831169 5:0.58 6:-0.0175438596491228 7:-0.54 8:-0.177215189873418 9:0.168831168831168 10:0.58 11:-0.0779220779220772 12:0.298245614035087 
-1 0:1 1:-0.146551724137931 2:-0.389830508474577 3:-0.312 4:-0.298701298701299 5:-0.26 6:0.315789473684211 7:0.0199999999999999 8:-0.10126582278481 9:-0.298701298701298 10:-0.260000000000001 11:-0.246753246753247 12:0.368421052631579 
-1 0:1 1:0.0603448275862072 2:0.288135593220339 3:-0.432 4:-0.025974025974026 5:0.36 6:-0.368421052631579 7:0.42 8:0.70886075949367 9:-0.0129870129870122 10:0.359999999999999 11:0.519480519480519 12:-0.587719298245615 
+1 0:1 1:0.0344827586206902 2:0.0338983050847458 3:-0.00800000000000001 4:0.597402597402597 5:0.34 6:0.473684210526316 7:-0.9 8:-0.126582278481013 9:0.597402597402598 10:0.340000000000001 11:-0.168831168831169 12:0.140350877192983 
+1 0:1 1:0.31896551724138 2:-0.0847457627118644 3:0.52 4:0.0519480519480519 5:0.14 6:0.526315789473684 7:-0.36 8:-0.632911392405063 9:0.0519480519480527 10:0.139999999999999 11:0.597402597402597 12:0.149122807017544 
-1 0:1 1:0.310344827586207 2:-0.11864406779661 3:-0.264 4:0.103896103896104 5:-0.56 6:0.228070175438596 7:0.28 8:-0.253164556962025 9:0.103896103896103 10:-0.56 11:-0.233766233766234 12:-0.114035087719298 
+1 0:1 1:-0.163793103448276 2:-0.0338983050847458 3:0.0560000000000001 4:0.25974025974026 5:0.16 6:-0.0877192982456141 7:-0.22 8:0.215189873417722 9:0.25974025974026 10:0.159999999999999 11:0.311688311688311 12:-0.0263157894736852 
+1 0:1 1:0.025862068965517 2:-0.101694915254237 3:-0.048 4:-0.168831168831169 5:-0.12 6:-0.0175438596491229 7:-0.32 8:-0.430379746835443 9:-0.168831168831168 10:-0.12 11:0.0779220779220781 12:0.254385964912281 
-1 0:1 1:-0.439655172413793 2:-0.508474576271187 3:-0.272 4:0.025974025974026 5:-0.06 6:0.0526315789473683 7:-0.36 8:-0.253164556962025 9:0.0259740259740263 10:-0.0600000000000008 11:-0.688311688311689 12:0.640350877192983 
-1 0:1 1:0.0689655172413803 2:0.288135593220339 3:-0.616000000000001 4:0.311688311688312 5:0.06 6:0.070175438596491 7:-0.0400000000000002 8:0.202531645569619 9:0.311688311688312 10:0.0599999999999994 11:0.155844155844156 12:-0.157894736842105 
-1 0:1 1:-0.577586206896552 2:-0.457627118644068 3:-0.48 4:0.012987012987013 5:-0.18 6:0.12280701754386 7:0.16 8:-0.0253164556962028 9:0.0129870129870122 10:-0.180000000000001 11:-0.402597402597403 12:0.578947368421052 
+1 0:1 1:0.405172413793104 2:-0.0677966101694917 3:-0.0720000000000001 4:0.207792207792208 5:0.46 6:0.333333333333333 7:-0.64 8:-0.632911392405063 9:0.207792207792207 10:0.460000000000001 11:0 12:0.114035087719298 
+1 0:1 1:0.0431034482758621 2:0.169491525423729 3:0.016 4:0.441558441558441 5:0.96 6:-0.263157894736842 7:-0.52 8:0.11392405063291 9:0.44155844155844 10:0.960000000000001 11:-0.233766233766233 12:-0.0526315789473692 
+1 0:1 1:0.663793103448276 2:0.271186440677966 3:-0.112 4:0.532467532467533 5:-0.36 6:0.771929824561404 7:-0.1 8:-0.329113924050634 9:0.532467532467532 10:-0.359999999999999 11:-0.571428571428572 12:-0.482456140350878 
+1 0:1 1:0.232758620689656 2:0.11864406779661 3:0.176 4:-0.168831168831169 5:0.42 6:0.12280701754386 7:-0.24 8:-0.139240506329115 9:-0.168831168831168 10:0.42 11:0.428571428571429 12:-0.0964912280701763 
+1 0:1 1:0.336206896551725 2:0.101694915254237 3:-0.224 4:0.0389610389610389 5:0.14 6:-0.0175438596491228 7:0.14 8:-0.0506329113924057 9:0.0389610389610404 10:0.139999999999999 11:0.415584415584416 12:-0.298245614035088 
+1 0:1 1:0.18103448275862 2:0.322033898305085 3:0.432 4:-0.220779220779221 5:-0.18 6:-0.596491228070176 7:0.64 8:0.164556962025316 9:-0.220779220779221 10:-0.18 11:0.272727272727273 12:-0.42982456140351 
+1 0:1 1:-0.474137931034483 2:-0.644067796610169 3:0.8 4:-0.181818181818182 5:0.06 6:0.456140350877193 7:-0.26 8:-0.164556962025316 9:-0.181818181818182 10:0.0599999999999994 11:0.298701298701299 12:0.657894736842106 
+1 0:1 1:0.543103448275862 2:0.135593220338983 3:0.16 4:0.493506493506494 5:0.42 6:0.175438596491228 7:-0.3 8:-0.354430379746835 9:0.493506493506493 10:0.42 11:0.233766233766233 12:-0.333333333333335 
-1 0:1 1:0.594827586206896 2:-0.101694915254237 3:-0.264 4:0.0909090909090909 5:0.04 6:-0.0350877192982455 7:-0.0600000000000001 8:-0.696202531645569 9:0.0909090909090912 10:0.0399999999999991 11:-0.0129870129870132 12:-0.0877192982456141 
+1 0:1 1:0.35344827586207 2:0.186440677966102 3:0.192 4:-0.207792207792208 5:-0.26 6:-0.0350877192982455 7:0.16 8:-0.278481012658228 9:-0.207792207792207 10:-0.259999999999999 11:0.519480519480519 12:-0.122807017543859 
-1 0:1 1:-0.422413793103449 2:-0.271186440677966 3:0.192 4:-0.12987012987013 5:0 6:-0.350877192982456 7:0.0199999999999999 8:0.215189873417722 9:-0.12987012987013 10:0 11:-0.61038961038961 12:0.219298245614035 
+1 0:1 1:0.46551724137931 2:0.64406779661017 3:0.216 4:-0.233766233766234 5:0.06 6:-0.263157894736842 7:0.62 8:0.556962025316456 9:-0.233766233766233 10:0.0600000000000008 11:0.753246753246754 12:-0.859649122807018 
+1 0:1 1:0.620689655172414 2:0.135593220338983 3:0.168 4:0.402597402597403 5:0.46 6:-0.087719298245614 7:-0.18 8:-0.405063291139241 9:0.402597402597402 10:0.460000000000001 11:-0.246753246753246 12:-0.333333333333333 
-1 0:1 1:-0.0689655172413792 2:-0.0677966101694916 3:0.144 4:0.233766233766234 5:-0.12 6:-0.0175438596491231 7:-0.0199999999999999 8:0.139240506329113 9:0.233766233766233 10:-0.119999999999999 11:0.103896103896103 12:-0.00877192982456088 
-1 0:1 1:-0.068965517241379 2:0.0338983050847458 3:-0.112 4:-0.0779220779220779 5:0.1 6:-0.192982456140351 7:0.24 8:0.0632911392405063 9:-0.0779220779220789 10:0.1 11:0.142857142857143 12:-0.0789473684210532 
+1 0:1 1:-0.0172413793103451 2:-0.0169491525423728 3:0.624 4:0.25974025974026 5:0.28 6:0.631578947368421 7:-0.26 8:0.0126582278481023 9:0.25974025974026 10:0.28 11:0.376623376623376 12:0 
+1 0:1 1:0.0431034482758621 2:-0.11864406779661 3:0.048 4:0.25974025974026 5:-0.34 6:0.56140350877193 7:-0.26 8:-0.0886075949367091 9:0.25974025974026 10:-0.340000000000001 11:-0.467532467532468 12:0.0877192982456141 
+1 0:1 1:-0.189655172413793 2:-0.0338983050847459 3:-0.304 4:0.207792207792208 5:0.32 6:0.228070175438597 7:-0.14 8:0.240506329113925 9:0.207792207792207 10:0.32 11:-0.324675324675325 12:0.0350877192982462 
-1 0:1 1:-0.465517241379311 2:-0.0169491525423728 3:-0.464 4:-0.311688311688312 5:-0.04 6:-0.508771929824562 7:0.18 8:0.645569620253163 9:-0.298701298701298 10:-0.0400000000000006 11:0.22077922077922 12:0.052631578947368 
-1 0:1 1:-0.448275862068965 2:0.0677966101694916 3:-0.0880000000000001 4:-0.0779220779220779 5:-0.6 6:0.421052631578947 7:0.2 8:0.531645569620253 9:-0.0779220779220771 10:-0.6 11:0.441558441558441 12:0.0789473684210532 
-1 0:1 1:0.655172413793103 2:0.322033898305085 3:-0.04 4:-0.246753246753247 5:-0.46 6:-0.0701754385964912 7:0.82 8:-0.177215189873418 9:-0.246753246753247 10:-0.459999999999999 11:-0.0779220779220781 12:-0.631578947368422 
+1 0:1 1:-0.810344827586208 2:-0.813559322033898 3:-0.016 4:-0.233766233766234 5:0.04 6:-0.140350877192983 7:-0.16 8:0.10126582278481 9:-0.233766233766235 10:0.0399999999999991 11:-0.597402597402596 12:0.780701754385965 
+1 0:1 1:-0.077586206896551 2:0.271186440677966 3:0.048 4:0.246753246753247 5:0.74 6:-0.105263157894737 7:-0.0199999999999999 8:0.417721518987341 9:0.246753246753246 10:0.740000000000001 11:0.0389610389610395 12:-0.166666666666667 
+1 0:1 1:-0.0172413793103451 2:-0.0508474576271186 3:-0.32 4:0.376623376623377 5:0.18 6:-0.0877192982456141 7:0.1 8:0.278481012658228 9:0.376623376623377 10:0.18 11:0.207792207792208 12:-0.175438596491228 
-1 0:1 1:-0.405172413793104 2:0.0677966101694917 3:0.0720000000000001 4:-0.207792207792208 5:-0.46 6:-0.333333333333333 7:0.64 8:0.632911392405063 9:-0.207792207792207 10:-0.460000000000001 11:0 12:-0.114035087719298 
+1 0:1 1:0.456896551724138 2:0.101694915254237 3:0.224 4:0.662337662337662 5:0.62 6:-0.175438596491228 7:-0.4 8:-0.189873417721519 9:0.662337662337661 10:0.62 11:0.064935064935065 12:-0.359649122807019 
+1 0:1 1:-0.189655172413793 2:-0.0508474576271186 3:0.288 4:-0.181818181818182 5:-0.32 6:0.245614035087719 7:0.22 8:0.0759493670886087 9:-0.181818181818182 10:-0.32 11:-0.0519480519480527 12:0.0614035087719301 
+1 0:1 1:-0.293103448275863 2:-0.288135593220339 3:0.0960000000000001 4:-0.298701298701299 5:-0.44 6:0.192982456140351 7:0.26 8:0.303797468354431 9:-0.298701298701298 10:-0.440000000000001 11:-0.142857142857143 12:0.184210526315789 
-1 0:1 1:0.120689655172414 2:0.271186440677966 3:-0.024 4:0.597402597402597 5:-0.22 6:0.421052631578947 7:-0.14 8:0.0632911392405063 9:0.597402597402596 10:-0.22 11:-0.766233766233767 12:-0.271929824561403 
-1 0:1 1:-0.689655172413793 2:-0.237288135593221 3:-0.368 4:-0.337662337662338 5:-0.22 6:-0.0526315789473686 7:0.0399999999999998 8:0.354430379746835 9:-0.337662337662337 10:-0.22 11:-0.480519480519481 12:0.517543859649124 
+1 0:1 1:0.0431034482758621 2:0.101694915254237 3:0.311999999999999 4:-0.012987012987013 5:0.36 6:0.175438596491228 7:-0.0800000000000001 8:0.126582278481013 9:0 10:0.359999999999999 11:0.701298701298701 12:-0.140350877192982 
+1 0:1 1:0.068965517241379 2:0 3:-0.216 4:0.454545454545455 5:-0.0199999999999999 6:-0.0175438596491231 7:0.08 8:0.0126582278481005 9:0.454545454545454 10:-0.0199999999999988 11:-0.168831168831169 12:-0.0526315789473679 
+1 0:1 1:-0.129310344827586 2:0.237288135593221 3:-0.328 4:0.0779220779220779 5:-0.26 6:0.140350877192982 7:0.36 8:0.417721518987341 9:0.0779220779220791 10:-0.260000000000001 11:0.363636363636363 12:-0.149122807017544 
-1 0:1 1:0.172413793103448 2:-0.0508474576271187 3:-0.04 4:0.246753246753247 5:0.38 6:0.0877192982456141 7:-0.16 8:-0.253164556962025 9:0.246753246753246 10:0.38 11:-0.415584415584415 12:-0.070175438596491 
-1 0:1 1:-0.336206896551725 2:-0.101694915254237 3:0.224 4:-0.0389610389610389 5:-0.14 6:0.0175438596491228 7:-0.14 8:0.0506329113924057 9:-0.0389610389610404 10:-0.139999999999999 11:-0.415584415584416 12:0.298245614035088 
+1 0:1 1:-0.198275862068965 2:0.271186440677966 3:0.408 4:0.0779220779220779 5:0.44 6:-0.245614035087719 7:-0.0999999999999999 8:0.392405063291138 9:0.0779220779220772 10:0.440000000000001 11:0.220779220779221 12:-0.0964912280701763 
+1 0:1 1:-0.344827586206897 2:-0.440677966101695 3:-0.224 4:0.350649350649351 5:-0.1 6:0.298245614035088 7:-0.54 8:-0.0759493670886068 9:0.350649350649351 10:-0.1 11:-0.155844155844156 12:0.517543859649124 
-1 0:1 1:-0.293103448275862 2:-0.40677966101695 3:-0.0640000000000001 4:-0.12987012987013 5:-0.26 6:-0.0701754385964913 7:-0.1 8:-0.253164556962025 9:-0.12987012987013 10:-0.260000000000001 11:-0.441558441558441 12:0.456140350877194 
-1 0:1 1:0.129310344827586 2:0.525423728813559 3:-0.112 4:0.467532467532468 5:0.68 6:-0.228070175438596 7:-0.42 8:0.113924050632912 9:0.467532467532468 10:0.68 11:0.324675324675325 12:-0.271929824561403 
+1 0:1 1:0.189655172413793 2:0 3:0.024 4:0.12987012987013 5:0.44 6:-0.0350877192982454 7:-0.0600000000000001 8:-0.0253164556962029 9:0.12987012987013 10:0.440000000000001 11:0.363636363636364 12:-0.0789473684210532 
+1 0:1 1:0.232758620689655 2:0.135593220338983 3:0.144 4:-0.324675324675325 5:-0.4 6:0.228070175438597 7:0.36 8:-0.164556962025316 9:-0.324675324675325 10:-0.4 11:0.415584415584416 12:-0.157894736842105 
+1 0:1 1:0.439655172413793 2:0.474576271186441 3:0.048 4:-0.0909090909090909 5:-0.34 6:0.263157894736842 7:0.6 8:0.354430379746835 9:-0.0909090909090912 10:-0.339999999999999 11:0.376623376623376 12:-0.728070175438597 
+1 0:1 1:0.577586206896552 2:0.457627118644068 3:0.48 4:-0.012987012987013 5:0.18 6:-0.12280701754386 7:-0.16 8:0.0253164556962028 9:-0.0129870129870122 10:0.180000000000001 11:0.402597402597403 12:-0.578947368421052 
+1 0:1 1:0.00862068965517193 2:-0.0847457627118645 3:0.016 4:0.506493506493507 5:0.54 6:0 7:-0.38 8:-0.0379746835443034 9:0.506493506493505 10:0.539999999999999 11:-0.103896103896103 12:-0.0964912280701763 
+1 0:1 1:0.318965517241379 2:0.169491525423729 3:-0.24 4:0.155844155844156 5:0.34 6:-0.280701754385965 7:0.16 8:-0.113924050632912 9:0.155844155844156 10:0.339999999999999 11:-0.077922077922078 12:-0.228070175438597 
-1 0:1 1:0.267241379310346 2:0.440677966101695 3:-0.36 4:0.51948051948052 5:0.44 6:-0.385964912280702 7:-0.1 8:0.0759493670886068 9:0.519480519480519 10:0.440000000000001 11:-0.246753246753246 12:-0.421052631578947 
+1 0:1 1:-0.120689655172414 2:0 3:0.36 4:-0.168831168831169 5:-0.3 6:-0.140350877192983 7:-0.08 8:-0.0253164556962029 9:-0.168831168831168 10:-0.3 11:0.181818181818182 12:0.070175438596491 
+1 0:1 1:0.00862068965517326 2:-0.0508474576271186 3:-0.0720000000000001 4:0.779220779220779 5:0.1 6:0.842105263157895 7:-0.92 8:-0.151898734177215 9:0.779220779220779 10:0.1 11:-0.493506493506494 12:0.149122807017544 
+1 0:1 1:0.551724137931035 2:0.762711864406779 3:-0.528 4:0.532467532467532 5:0.28 6:0.43859649122807 7:-0.2 8:0 9:0.532467532467533 10:0.28 11:0.623376623376623 12:-0.578947368421053 
-1 0:1 1:-0.71551724137931 2:-0.52542372881356 3:-0.12 4:-0.207792207792208 5:-0.28 6:0.12280701754386 7:0.0600000000000001 8:0.10126582278481 9:-0.207792207792209 10:-0.280000000000001 11:-0.12987012987013 12:0.62280701754386 
+1 0:1 1:0.508620689655173 2:0.11864406779661 3:0.776 4:0.298701298701299 5:0.4 6:0.684210526315789 7:-0.26 8:-0.518987341772151 9:0.298701298701298 10:0.4 11:0.480519480519481 12:-0.19298245614035 
-1 0:1 1:-0.0603448275862072 2:-0.288135593220339 3:0.432 4:0.025974025974026 5:-0.36 6:0.368421052631579 7:-0.42 8:-0.70886075949367 9:0.0129870129870122 10:-0.359999999999999 11:-0.519480519480519 12:0.587719298245615 
+1 0:1 1:-0.0172413793103451 2:-0.220338983050848 3:-0.2 4:0.12987012987013 5:-0.1 6:-0.175438596491228 7:-0.14 8:-0.316455696202531 9:0.12987012987013 10:-0.1 11:0.0129870129870132 12:0.271929824561404 
-1 0:1 1:0.206896551724137 2:-0.11864406779661 3:0.216 4:-0.025974025974026 5:0.14 6:0.403508771929825 7:-0.24 8:-0.417721518987341 9:-0.0259740259740263 10:0.140000000000001 11:0.207792207792207 12:0.122807017543859 
+1 0:1 1:0.405172413793104 2:0.0169491525423728 3:0.192 4:-0.285714285714286 5:-0.88 6:0.0877192982456141 7:0.5 8:-0.265822784810126 9:-0.285714285714284 10:-0.88 11:0.402597402597402 12:-0.210526315789473 
+1 0:1 1:-0.068965517241379 2:0.152542372881356 3:0.024 4:-0.376623376623377 5:0.08 6:0.0526315789473686 7:-0.36 8:-0.0632911392405063 9:-0.376623376623375 10:0.0799999999999996 11:-0.246753246753247 12:0.166666666666667 
+1 0:1 1:0.0862068965517242 2:-0.220338983050848 3:-0.0960000000000001 4:0.272727272727273 5:0.1 6:0.578947368421053 7:-0.42 8:-0.518987341772151 9:0.25974025974026 10:0.1 11:-0.428571428571428 12:0.324561403508772 
+1 0:1 1:-0.129310344827586 2:-0.0508474576271187 3:-0.728000000000001 4:-0.064935064935065 5:-0.18 6:0.263157894736842 7:0.4 8:0.0632911392405063 9:-0.0649350649350648 10:-0.180000000000001 11:0.272727272727273 12:0.140350877192982 
-1 0:1 1:0.336206896551725 2:-0.0677966101694916 3:-0.104 4:-0.207792207792208 5:-0.14 6:-0.105263157894737 7:-0.0999999999999999 8:-0.645569620253165 9:-0.207792207792207 10:-0.140000000000001 11:0.220779220779221 12:0.149122807017544 
+1 0:1 1:0.655172413793103 2:0.355932203389831 3:0.184 4:-0.181818181818182 5:-0.06 6:-0.385964912280702 7:0.58 8:-0.278481012658228 9:-0.181818181818182 10:-0.0599999999999994 11:0.233766233766234 12:-0.543859649122808 
+1 0:1 1:-0.232758620689655 2:-0.101694915254237 3:0.0800000000000001 4:0.38961038961039 5:0.8 6:-0.543859649122807 7:-0.6 8:0.0632911392405063 9:0.389610389610389 10:0.8 11:-0.103896103896103 12:0.245614035087719 
-1 0:1 1:0.431034482758621 2:-0.305084745762712 3:-0.376 4:0.233766233766234 5:0.54 6:-0.0175438596491228 7:-0.58 8:-1 9:0.233766233766233 10:0.539999999999999 11:-0.519480519480519 12:0.342105263157894 
+1 0:1 1:0.206896551724137 2:-0.0677966101694917 3:-0.0960000000000001 4:0.025974025974026 5:0.02 6:0.192982456140351 7:-0.4 8:-0.468354430379747 9:0.0259740259740263 10:0.0200000000000003 11:-0.103896103896104 12:0.140350877192982 
-1 0:1 1:-0.0775862068965523 2:-0.389830508474577 3:0.0720000000000001 4:-0.337662337662338 5:-0.12 6:0.140350877192983 7:-0.12 8:-0.151898734177215 9:-0.337662337662337 10:-0.12 11:0.298701298701299 12:0.359649122807017 
-1 0:1 1:-0.439655172413793 2:-0.406779661016949 3:0.376 4:-0.571428571428571 5:-0.12 6:0 7:0.14 8:0.139240506329113 9:-0.571428571428572 10:-0.12 11:-0.0909090909090903 12:0.385964912280701 
-1 0:1 1:-0.301724137931035 2:-0.237288135593221 3:-0.176 4:-0.025974025974026 5:0.2 6:0.0701754385964912 7:-0.56 8:-0.0632911392405063 9:-0.0259740259740264 10:0.2 11:0.077922077922078 12:0.421052631578947 
+1 0:1 1:0.370689655172414 2:0.288135593220339 3:-0.52 4:-0.428571428571429 5:-0.34 6:-0.754385964912281 7:0.7 8:0.253164556962025 9:-0.428571428571428 10:-0.339999999999999 11:-0.246753246753246 12:-0.517543859649124 
-1 0:1 1:0.31896551724138 2:0.186440677966102 3:0.392 4:0.519480519480519 5:0.58 6:-0.140350877192983 7:-0.78 8:-0.113924050632912 9:0.519480519480519 10:0.580000000000001 11:-0.0779220779220781 12:-0.201754385964912 
-1 0:1 1:0.327586206896553 2:0.338983050847458 3:-0.0720000000000001 4:0.012987012987013 5:-0.26 6:-0.228070175438597 7:0.32 8:0.10126582278481 9:0.0129870129870141 10:-0.259999999999999 11:0.12987012987013 12:-0.359649122807017 
+1 0:1 1:0.620689655172414 2:0.389830508474577 3:0.392 4:-0.038961038961039 5:0.3 6:0.105263157894737 7:-0.4 8:-0.417721518987341 9:-0.0389610389610386 10:0.3 11:0.233766233766234 12:-0.350877192982456 
-1 0:1 1:0.224137931034484 2:-0.203389830508475 3:-0.16 4:0.623376623376623 5:-0.02 6:0.508771929824562 7:-0.7 8:-0.683544303797469 9:0.623376623376623 10:-0.0200000000000003 11:-0.948051948051948 12:0.245614035087719 
+1 0:1 1:0.327586206896552 2:-0.0677966101694917 3:-0.456 4:0.194805194805195 5:0.32 6:0.333333333333333 7:-0.32 8:-0.443037974683544 9:0.194805194805195 10:0.32 11:-0.285714285714286 12:0.0701754385964911 
+1 0:1 1:-0.163793103448276 2:0.220338983050848 3:-0.288 4:-0.285714285714286 5:-0.24 6:-0.578947368421053 7:0.74 8:0.70886075949367 9:-0.272727272727272 10:-0.240000000000001 11:0.142857142857142 12:-0.368421052631579 
-1 0:1 1:-0.267241379310344 2:-0.11864406779661 3:-0.368 4:-0.285714285714286 5:-0.28 6:0.263157894736842 7:0.3 8:0.189873417721519 9:-0.285714285714286 10:-0.280000000000001 11:0.545454545454546 12:0.184210526315789 
+1 0:1 1:-0.0172413793103451 2:-0.186440677966102 3:0.744 4:0.012987012987013 5:0 6:0.543859649122807 7:-0.5 8:-0.582278481012657 9:0.0129870129870122 10:0 11:0.181818181818182 12:0.447368421052633 
+1 0:1 1:0.0344827586206902 2:-0.11864406779661 3:0.184 4:0.51948051948052 5:0.28 6:0.43859649122807 7:-0.62 8:-0.0759493670886068 9:0.519480519480519 10:0.28 11:0.246753246753247 12:0.026315789473684 
-1 0:1 1:0.646551724137931 2:0.559322033898306 3:0.00800000000000001 4:0.12987012987013 5:0.38 6:-0.315789473684211 7:0.18 8:-0.0379746835443034 9:0.12987012987013 10:0.380000000000001 11:0.272727272727273 12:-0.701754385964913 
-1 0:1 1:0.163793103448276 2:0.0338983050847458 3:-0.0560000000000001 4:-0.25974025974026 5:-0.16 6:0.0877192982456141 7:0.22 8:-0.215189873417722 9:-0.25974025974026 10:-0.159999999999999 11:-0.311688311688311 12:0.0263157894736852 
+1 0:1 1:0.387931034482759 2:-0.237288135593221 3:-0.104 4:-0.285714285714286 5:-0.76 6:0.0175438596491228 7:0.24 8:-0.632911392405063 9:-0.285714285714284 10:-0.760000000000001 11:0.103896103896103 12:0.0614035087719301 
+1 0:1 1:-0.137931034482758 2:-0.0677966101694916 3:0.36 4:-0.220779220779221 5:-0.1 6:0 7:-0.1 8:0.126582278481013 9:-0.220779220779221 10:-0.1 11:0.272727272727273 12:0.0438596491228071 
-1 0:1 1:-0.327586206896552 2:-0.101694915254237 3:0.0640000000000001 4:0.025974025974026 5:0.46 6:-0.403508771929824 7:-0.42 8:-0.0632911392405062 9:0.0259740259740263 10:0.459999999999999 11:0.246753246753247 12:0.385964912280703 
-1 0:1 1:0.353448275862069 2:-0.0169491525423728 3:0.424 4:-0.181818181818182 5:-0.06 6:0.280701754385965 7:0.0200000000000003 8:-0.417721518987341 9:-0.181818181818182 10:-0.0599999999999994 11:0.454545454545454 12:-0.0614035087719301 
-1 0:1 1:0.560344827586207 2:0.288135593220339 3:-0.0640000000000001 4:0.038961038961039 5:0.76 6:0.0175438596491231 7:-0.26 8:-0.39240506329114 9:0.0389610389610385 10:0.759999999999999 11:0.0909090909090913 12:-0.271929824561404 
+1 0:1 1:0.706896551724138 2:0.457627118644068 3:0.296 4:-0.376623376623377 5:-0.32 6:-0.157894736842105 7:0.6 8:-0.0126582278481006 9:-0.376623376623375 10:-0.319999999999999 11:0.649350649350649 12:-0.640350877192983 
-1 0:1 1:-0.155172413793103 2:-0.11864406779661 3:0.296 4:-0.0909090909090909 5:-0.42 6:0.596491228070176 7:0 8:-0.240506329113923 9:-0.103896103896103 10:-0.42 11:0.0259740259740263 12:0.280701754385965 
+1 0:1 1:-0.18103448275862 2:-0.322033898305085 3:-0.432 4:0.220779220779221 5:0.18 6:0.596491228070176 7:-0.64 8:-0.164556962025316 9:0.220779220779221 10:0.18 11:-0.272727272727273 12:0.42982456140351 
+1 0:1 1:0.00862068965517304 2:0 3:0 4:0.0519480519480519 5:0 6:0.175438596491228 7:-0.18 8:-0.139240506329113 9:0.0519480519480508 10:0 11:-0.25974025974026 12:0.0526315789473693 
+1 0:1 1:-0.025862068965517 2:-0.0677966101694916 3:0.168 4:-0.0779220779220779 5:-0.16 6:-0.0701754385964912 7:0.08 8:-0.164556962025316 9:-0.077922077922079 10:-0.159999999999999 11:-0.272727272727273 12:0.192982456140351 
+1 0:1 1:0.474137931034483 2:0.322033898305085 3:-0.144 4:0.493506493506494 5:0.58 6:0.0175438596491228 7:-0.34 8:-0.341772151898734 9:0.493506493506493 10:0.580000000000001 11:-0.0389610389610394 12:-0.298245614035088 
-1 0:1 1:-0.0431034482758621 2:0.0847457627118644 3:0.28 4:-0.636363636363636 5:0.26 6:-0.350877192982456 7:-0.0600000000000001 8:0.0126582278481023 9:-0.636363636363635 10:0.259999999999999 11:0.493506493506494 12:0.043859649122807 
+1 0:1 1:0.387931034482759 2:0.220338983050848 3:-0.376 4:-0.298701298701299 5:-0.38 6:-0.0526315789473686 7:0.6 8:0.177215189873416 9:-0.285714285714286 10:-0.38 11:0.0779220779220772 12:-0.526315789473685 
+1 0:1 1:0.112068965517242 2:0.355932203389831 3:-0.152 4:-0.038961038961039 5:0.16 6:0.43859649122807 7:-0.0600000000000001 8:0.139240506329113 9:-0.0389610389610385 10:0.159999999999999 11:0.532467532467533 12:-0.192982456140351 
+1 0:1 1:0.120689655172414 2:0.0338983050847459 3:-0.0800000000000001 4:-0.168831168831169 5:-0.46 6:-0.0526315789473686 7:0.28 8:-0.189873417721519 9:-0.168831168831168 10:-0.460000000000001 11:-0.220779220779221 12:-0.026315789473684 
+1 0:1 1:0.327586206896552 2:0.389830508474577 3:-0.0960000000000001 4:0.025974025974026 5:0.28 6:-0.385964912280702 7:0.64 8:0.354430379746835 9:0.0259740259740263 10:0.28 11:0.363636363636364 12:-0.692982456140352 
-1 0:1 1:-0.681034482758621 2:-0.813559322033898 3:-0.2 4:-0.597402597402597 5:-0.46 6:-0.175438596491228 7:0.6 8:0.0632911392405063 9:-0.597402597402598 10:-0.460000000000001 11:-0.35064935064935 12:0.719298245614035 
-1 0:1 1:0.344827586206897 2:0.152542372881356 3:-0.464 4:-0.220779220779221 5:-0.34 6:-0.543859649122807 7:0.44 8:-0.0506329113924058 9:-0.220779220779221 10:-0.339999999999999 11:-0.311688311688311 12:-0.298245614035088 
+1 0:1 1:0.362068965517242 2:0.101694915254237 3:0.208 4:0.298701298701299 5:0.28 6:-0.0350877192982455 7:-0.22 8:-0.316455696202531 9:0.298701298701298 10:0.28 11:0.415584415584416 12:-0.219298245614035 
-1 0:1 1:-0.0862068965517242 2:-0.52542372881356 3:0.152 4:-0.155844155844156 5:-0.12 6:0.333333333333333 7:-0.34 8:-0.670886075949366 9:-0.155844155844156 10:-0.12 11:-0.233766233766234 12:0.578947368421053 
+1 0:1 1:0.18103448275862 2:-0.186440677966102 3:-0.28 4:-0.207792207792208 5:0.32 6:-0.157894736842105 7:0.1 8:-0.341772151898734 9:-0.207792207792209 10:0.319999999999999 11:0.103896103896104 12:0.105263157894736 
-1 0:1 1:-0.0862068965517242 2:-0.474576271186441 3:-0.16 4:-0.103896103896104 5:-0.24 6:0.122807017543859 7:-0.5 8:-0.721518987341772 9:-0.103896103896104 10:-0.240000000000001 11:-0.545454545454546 12:0.596491228070176 
+1 0:1 1:0.5 2:0.169491525423729 3:-0.304 4:-0.168831168831169 5:0.12 6:0 7:0.2 8:-0.139240506329113 9:-0.168831168831168 10:0.12 11:0.0259740259740263 12:-0.333333333333333 
+1 0:1 1:0.706896551724139 2:0.169491525423729 3:0.104 4:0.233766233766234 5:0.26 6:0.263157894736842 7:-0.0800000000000001 8:-0.569620253164557 9:0.233766233766233 10:0.260000000000001 11:-0.077922077922078 12:-0.307017543859649 
+1 0:1 1:0.275862068965518 2:0.271186440677966 3:-0.0640000000000001 4:0.0519480519480519 5:0.16 6:0.280701754385965 7:0.0800000000000001 8:0.0506329113924039 9:0.0519480519480509 10:0.160000000000001 11:-0.12987012987013 12:-0.298245614035088 
-1 0:1 1:0.387931034482759 2:0.288135593220339 3:-0.0800000000000001 4:0.662337662337662 5:0.78 6:-0.333333333333333 7:-0.44 8:-0.177215189873418 9:0.662337662337661 10:0.780000000000001 11:-0.207792207792208 12:-0.324561403508772 
-1 0:1 1:0.474137931034483 2:0.288135593220339 3:0.184 4:0.116883116883117 5:0.5 6:0.228070175438597 7:-0.66 8:-0.417721518987341 9:0.116883116883118 10:0.5 11:-0.0129870129870131 12:-0.166666666666667 
+1 0:1 1:0.189655172413793 2:0.271186440677966 3:0.36 4:0.558441558441559 5:-0.08 6:0.245614035087719 7:-0.28 8:0.0126582278481006 9:0.558441558441558 10:-0.0799999999999997 11:-0.220779220779221 12:-0.280701754385965 
-1 0:1 1:0.0431034482758621 2:-0.355932203389831 3:-0.00800000000000001 4:-0.506493506493507 5:-0.58 6:0.0877192982456141 7:0.16 8:-0.341772151898734 9:-0.506493506493505 10:-0.580000000000001 11:0.0779220779220781 12:0.333333333333333 
+1 0:1 1:0.103448275862068 2:0.0338983050847458 3:-0.352 4:-0.376623376623377 5:-0.24 6:-0.473684210526316 7:1 8:0 9:-0.376623376623377 10:-0.240000000000001 11:-0.103896103896103 12:-0.18421052631579 
-1 0:1 1:-0.551724137931035 2:-0.762711864406779 3:0.528 4:-0.532467532467532 5:-0.28 6:-0.43859649122807 7:0.2 8:0 9:-0.532467532467533 10:-0.28 11:-0.623376623376623 12:0.578947368421053 
-1 0:1 1:0.224137931034484 2:-0.101694915254237 3:-0.024 4:0.012987012987013 5:0.32 6:0.12280701754386 7:-0.56 8:-0.594936708860759 9:0.0129870129870122 10:0.32 11:0.181818181818182 12:0.228070175438597 
-1 0:1 1:0.0948275862068961 2:-0.169491525423729 3:0.136 4:0.116883116883117 5:0.06 6:-0.228070175438597 7:-0.42 8:-0.468354430379747 9:0.116883116883116 10:0.0600000000000009 11:-0.545454545454546 12:0.307017543859649 
-1 0:1 1:-0.344827586206897 2:-0.0847457627118645 3:-0.832 4:-0.558441558441559 5:-0.56 6:-0.596491228070175 7:0.48 8:0.303797468354429 9:-0.558441558441558 10:-0.56 11:-0.792207792207792 12:0.219298245614035 
+1 0:1 1:0.379310344827586 2:0.11864406779661 3:0.368 4:-0.38961038961039 5:-0.06 6:0.0701754385964913 7:0.28 8:-0.11392405063291 9:-0.389610389610389 10:-0.0599999999999994 11:0.519480519480519 12:-0.280701754385965 
+1 0:1 1:-0.0344827586206902 2:-0.220338983050848 3:0.264 4:0.103896103896104 5:-0.2 6:0.43859649122807 7:-0.5 8:-0.544303797468354 9:0.0909090909090912 10:-0.2 11:-0.246753246753247 12:0.394736842105263 
+1 0:1 1:-0.00862068965517304 2:-0.288135593220339 3:-0.4 4:-0.194805194805195 5:0.0800000000000001 6:-0.0526315789473683 7:0.22 8:-0.215189873417722 9:-0.194805194805195 10:0.0799999999999996 11:0.168831168831169 12:0.236842105263157 
-1 0:1 1:-0.310344827586207 2:0.0847457627118644 3:0.04 4:-0.168831168831169 5:0.16 6:0.0877192982456141 7:-0.0400000000000002 8:0.354430379746835 9:-0.168831168831168 10:0.159999999999999 11:-0.0779220779220781 12:0.026315789473684 
-1 0:1 1:0.250000000000001 2:-0.11864406779661 3:-0.0960000000000001 4:0.441558441558442 5:0.22 6:0.140350877192982 7:-0.68 8:-0.658227848101266 9:0.441558441558442 10:0.22 11:-0.623376623376624 12:0.236842105263158 
-1 0:1 1:0.577586206896552 2:-0.0338983050847459 3:0.152 4:-0.0389610389610389 5:-0.5 6:0.175438596491228 7:0.34 8:-0.518987341772151 9:-0.0389610389610386 10:-0.5 11:-0.0129870129870132 12:-0.280701754385964 
+1 0:1 1:-0.870689655172414 2:-0.169491525423729 3:0.328 4:-0.142857142857143 5:-0.2 6:-0.245614035087719 7:-0.0199999999999999 8:0.645569620253165 9:-0.142857142857142 10:-0.2 11:0.142857142857143 12:0.385964912280703 
+1 0:1 1:-0.293103448275863 2:-0.254237288135593 3:-0.232 4:0.0779220779220779 5:-0.36 6:-0.0175438596491231 7:0.58 8:0.379746835443038 9:0.0779220779220772 10:-0.359999999999999 11:-0.168831168831169 12:0.052631578947368 
+1 0:1 1:0 2:0.237288135593221 3:0.0560000000000001 4:0.766233766233766 5:0.24 6:0.473684210526316 7:-0.42 8:0.253164556962025 9:0.766233766233765 10:0.240000000000001 11:-0.545454545454546 12:-0.245614035087719 
-1 0:1 1:-0.448275862068966 2:-0.186440677966102 3:-0.208 4:-0.155844155844156 5:-0.08 6:0.175438596491228 7:0.0199999999999999 8:0.151898734177215 9:-0.155844155844156 10:-0.0800000000000011 11:-0.168831168831168 12:0.263157894736842 
-1 0:1 1:-0.379310344827587 2:-0.237288135593221 3:-0.560000000000001 4:-0.038961038961039 5:0.06 6:0.0701754385964912 7:-0.24 8:0.126582278481013 9:-0.0389610389610386 10:0.0599999999999994 11:-0.207792207792208 12:0.37719298245614 
-1 0:1 1:0.232758620689654 2:0.0847457627118645 3:0.376 4:-0.311688311688312 5:-0.06 6:-0.736842105263158 7:0.6 8:-0.0632911392405063 9:-0.311688311688312 10:-0.0599999999999994 11:-0.376623376623376 12:-0.324561403508772 
+1 0:1 1:-0.103448275862069 2:-0.35593220338983 3:0.28 4:-0.61038961038961 5:-0.28 6:-0.298245614035088 7:0.44 8:0.0886075949367091 9:-0.61038961038961 10:-0.28 11:0.0519480519480527 12:0.140350877192982 
+1 0:1 1:-0.163793103448275 2:0.186440677966102 3:0.248 4:-0.324675324675325 5:-0.04 6:-0.0350877192982455 7:0.22 8:0.354430379746835 9:-0.324675324675325 10:-0.0400000000000006 11:0.168831168831169 12:-0.157894736842105 
+1 0:1 1:-0.336206896551725 2:-0.254237288135593 3:0.0560000000000001 4:-0.51948051948052 5:-0.28 6:0.228070175438597 7:0.0600000000000001 8:-0.0632911392405063 9:-0.519480519480519 10:-0.28 11:-0.0259740259740264 12:0.456140350877194 
+1 0:1 1:0.543103448275862 2:0.237288135593221 3:-0.384 4:0.415584415584416 5:0.94 6:-0.070175438596491 7:-0.16 8:-0.113924050632912 9:0.415584415584416 10:0.939999999999999 11:0.298701298701299 12:-0.447368421052633 
-1 0:1 1:0.232758620689656 2:0.169491525423729 3:0.216 4:0.571428571428571 5:0.36 6:0.263157894736842 7:-0.44 8:-0.417721518987341 9:0.558441558441558 10:0.360000000000001 11:-0.181818181818182 12:-0.043859649122807 
+1 0:1 1:0.00862068965517193 2:-0.11864406779661 3:0.576 4:0.0909090909090909 5:0.16 6:0.614035087719298 7:-0.58 8:-0.417721518987341 9:0.0909090909090912 10:0.159999999999999 11:0.454545454545454 12:0.254385964912281 
+1 0:1 1:0.198275862068965 2:0.11864406779661 3:0.584000000000001 4:-0.168831168831169 5:0.3 6:-0.245614035087719 7:-0.38 8:-0.202531645569619 9:-0.168831168831168 10:0.3 11:-0.376623376623376 12:-0.131578947368421 
+1 0:1 1:-0.405172413793104 2:-0.0169491525423728 3:-0.192 4:0.285714285714286 5:0.88 6:-0.0877192982456141 7:-0.5 8:0.265822784810126 9:0.285714285714284 10:0.88 11:-0.402597402597402 12:0.210526315789473 
+1 0:1 1:-0.327586206896552 2:0.0677966101694916 3:-0.0560000000000001 4:0.272727272727273 5:0.74 6:-0.31578947368421 7:-0.18 8:0.531645569620253 9:0.272727272727274 10:0.739999999999999 11:0.441558441558442 12:-0.0614035087719301 
-1 0:1 1:-0.112068965517241 2:-0.372881355932204 3:-0.112 4:0.0649350649350649 5:-0.12 6:0.140350877192982 7:-0.18 8:-0.291139240506329 9:0.0649350649350649 10:-0.12 11:-0.623376623376624 12:0.342105263157894 
+1 0:1 1:0.129310344827586 2:0.491525423728813 3:-0.336 4:0.402597402597403 5:0.28 6:0.0877192982456141 7:-0.18 8:0.215189873417722 9:0.402597402597404 10:0.28 11:0.0129870129870123 12:-0.359649122807017 
+1 0:1 1:0.0258620689655169 2:0.322033898305085 3:0.12 4:0.584415584415585 5:0.48 6:0.105263157894737 7:-0.4 8:0.278481012658228 9:0.584415584415584 10:0.480000000000001 11:-0.220779220779221 12:-0.25438596491228 
-1 0:1 1:0.189655172413793 2:-0.0338983050847459 3:0.2 4:-0.519480519480519 5:0.02 6:-0.315789473684211 7:0.52 8:-0.139240506329113 9:-0.519480519480519 10:0.0200000000000003 11:0.428571428571429 12:-0.096491228070175 
+1 0:1 1:-0.0689655172413792 2:-0.389830508474577 3:0.0720000000000001 4:-0.285714285714286 5:-0.12 6:0.315789473684211 7:-0.3 8:-0.291139240506329 9:-0.285714285714286 10:-0.12 11:0.0389610389610394 12:0.412280701754387 
-1 0:1 1:-0.232758620689656 2:-0.11864406779661 3:-0.176 4:0.168831168831169 5:-0.42 6:-0.12280701754386 7:0.24 8:0.139240506329115 9:0.168831168831168 10:-0.42 11:-0.428571428571429 12:0.0964912280701763 
-1 0:1 1:-0.129310344827586 2:0.11864406779661 3:-0.215999999999999 4:-0.25974025974026 5:-0.46 6:-0.754385964912281 7:0.5 8:0.392405063291138 9:-0.25974025974026 10:-0.459999999999999 11:-0.272727272727273 12:-0.18421052631579 
-1 0:1 1:-0.405172413793104 2:-0.220338983050848 3:-0.328 4:-0.350649350649351 5:-0.38 6:-0.210526315789474 7:0.68 8:0.278481012658228 9:-0.350649350649351 10:-0.380000000000001 11:-0.0909090909090904 12:0.175438596491228 
+1 0:1 1:0.71551724137931 2:0.372881355932204 3:0.312 4:0.12987012987013 5:0.22 6:-0.157894736842105 7:0.22 8:-0.0506329113924039 9:0.12987012987013 10:0.22 11:0.545454545454546 12:-0.736842105263159 
+1 0:1 1:-0.301724137931035 2:-0.372881355932204 3:0.24 4:0 5:0 6:0.666666666666667 7:-0.56 8:-0.139240506329113 9:0 10:0 11:0.22077922077922 12:0.482456140350878 
-1 0:1 1:0.594827586206896 2:-0.101694915254237 3:-0.264 4:0.0909090909090909 5:0.04 6:-0.0350877192982455 7:-0.0600000000000001 8:-0.696202531645569 9:0.0909090909090912 10:0.0399999999999991 11:-0.0129870129870132 12:-0.0877192982456141 
-1 0:1 1:-0.00862068965517193 2:0.0847457627118645 3:-0.016 4:-0.506493506493507 5:-0.54 6:0 7:0.38 8:0.0379746835443034 9:-0.506493506493505 10:-0.539999999999999 11:0.103896103896103 12:0.0964912280701763 
-1 0:1 1:-0.0689655172413803 2:-0.237288135593221 3:0.304 4:-0.25974025974026 5:-0.18 6:-0.280701754385965 7:-0.12 8:-0.253164556962025 9:-0.25974025974026 10:-0.18 11:-0.467532467532468 12:0.175438596491228 
+1 0:1 1:0.0689655172413792 2:0.355932203389831 3:0.256 4:-0.0909090909090909 5:0.0399999999999999 6:-0.105263157894737 7:-0.0200000000000003 8:0.215189873417722 9:-0.0909090909090894 10:0.0399999999999991 11:-0.0129870129870131 12:-0.280701754385965 
-1 0:1 1:0.336206896551725 2:0.169491525423729 3:-0.048 4:0.558441558441559 5:0.1 6:0.368421052631579 7:-0.52 8:-0.39240506329114 9:0.558441558441558 10:0.1 11:-0.324675324675325 12:-0.096491228070175 
-1 0:1 1:-0.387931034482759 2:-0.288135593220339 3:0.0800000000000001 4:-0.662337662337662 5:-0.78 6:0.333333333333333 7:0.44 8:0.177215189873418 9:-0.662337662337661 10:-0.780000000000001 11:0.207792207792208 12:0.324561403508772 
+1 0:1 1:-0.21551724137931 2:-0.355932203389831 3:-0.424 4:-0.376623376623377 5:-0.16 6:0.12280701754386 7:0.26 8:-0.0379746835443034 9:-0.376623376623377 10:-0.160000000000001 11:-0.103896103896103 12:0.289473684210526 
+1 0:1 1:0.413793103448276 2:0.389830508474577 3:-0.208 4:-0.441558441558442 5:0.02 6:-0.578947368421053 7:0.62 8:0.379746835443038 9:-0.428571428571428 10:0.0200000000000002 11:0.454545454545454 12:-0.657894736842106 
+1 0:1 1:0.21551724137931 2:-0.152542372881356 3:-0.0880000000000001 4:-0.155844155844156 5:-0.12 6:-0.333333333333333 7:0.22 8:-0.531645569620253 9:-0.155844155844156 10:-0.12 11:-0.454545454545454 12:0.096491228070175 
-1 0:1 1:0.224137931034484 2:0.355932203389831 3:0.256 4:0.402597402597403 5:0.52 6:0.0877192982456141 7:-0.36 8:0.354430379746835 9:0.402597402597404 10:0.52 11:0.467532467532468 12:-0.508771929824561 
+1 0:1 1:-0.189655172413793 2:-0.203389830508475 3:-0.256 4:-0.246753246753247 5:-0.26 6:-0.157894736842105 7:-0.0999999999999999 8:-0.113924050632912 9:-0.246753246753246 10:-0.260000000000001 11:0.116883116883117 12:0.342105263157894 
+1 0:1 1:-0.594827586206896 2:0.101694915254237 3:0.264 4:-0.0909090909090909 5:-0.04 6:0.0350877192982455 7:0.0600000000000001 8:0.696202531645569 9:-0.0909090909090912 10:-0.0399999999999991 11:0.0129870129870132 12:0.0877192982456141 
+1 0:1 1:0.275862068965518 2:0.59322033898305 3:-0.128 4:0.246753246753247 5:0.08 6:-0.0350877192982455 7:0.0800000000000001 8:0.215189873417722 9:0.246753246753247 10:0.0799999999999997 11:0.25974025974026 12:-0.543859649122806 
+1 0:1 1:0.00862068965517193 2:-0.169491525423729 3:0.888 4:0.0389610389610389 5:0.28 6:0.824561403508772 7:-0.42 8:-0.367088607594935 9:0.0389610389610386 10:0.28 11:0.766233766233766 12:0.236842105263158 
-1 0:1 1:0.017241379310345 2:0.254237288135593 3:0.296 4:0 5:-0.12 6:0.0701754385964913 7:0.26 8:0.367088607594937 9:0 10:-0.119999999999999 11:0.298701298701298 12:-0.271929824561403 
-1 0:1 1:0.0431034482758621 2:0.11864406779661 3:0.152 4:-0.298701298701299 5:-0.02 6:0.157894736842105 7:-0.18 8:-0.113924050632912 9:-0.298701298701298 10:-0.0200000000000003 11:0.0649350649350649 12:-0.0175438596491231 
+1 0:1 1:0.275862068965518 2:0.237288135593221 3:0.856 4:0.181818181818182 5:0.64 6:0.649122807017544 7:-0.84 8:-0.367088607594935 9:0.181818181818182 10:0.639999999999999 11:0.545454545454546 12:-0.052631578947368 
+1 0:1 1:0.0862068965517242 2:0.0338983050847458 3:-0.0640000000000001 4:-0.168831168831169 5:-0.2 6:0.350877192982456 7:0.1 8:-0.164556962025316 9:-0.168831168831168 10:-0.2 11:0.168831168831168 12:0.026315789473684 
+1 0:1 1:-0.387931034482759 2:-0.254237288135594 3:0.152 4:0.233766233766234 5:-0.02 6:0.368421052631579 7:-0.36 8:-0.0759493670886068 9:0.220779220779221 10:-0.0200000000000002 11:-0.389610389610389 12:0.43859649122807 
-1 0:1 1:0.051724137931034 2:-0.237288135593221 3:-0.0560000000000001 4:-0.0909090909090909 5:0.12 6:-0.140350877192982 7:-0.0399999999999999 8:-0.227848101265822 9:-0.0909090909090913 10:0.12 11:-0.649350649350649 12:0.105263157894737 
+1 0:1 1:0.336206896551725 2:0.40677966101695 3:-0.248 4:0.597402597402597 5:0.34 6:-0.192982456140351 7:-0.34 8:0.0126582278481005 9:0.597402597402598 10:0.340000000000001 11:-0.389610389610389 12:-0.342105263157894 
+1 0:1 1:0.232758620689655 2:-0.152542372881356 3:0.248 4:-0.25974025974026 5:-0.32 6:0.24561403508772 7:0.26 8:-0.227848101265822 9:-0.25974025974026 10:-0.32 11:-0.0389610389610386 12:-0.00877192982456093 
+1 0:1 1:0 2:0.288135593220339 3:0.4 4:0.142857142857143 5:-0.0800000000000001 6:-0.12280701754386 7:-0.0400000000000002 8:0.354430379746835 9:0.142857142857144 10:-0.0799999999999996 11:0.0909090909090904 12:-0.289473684210526 
+1 0:1 1:-0.18103448275862 2:0.0338983050847458 3:0.472 4:0.12987012987013 5:-0.38 6:0.12280701754386 7:0.18 8:0.39240506329114 9:0.12987012987013 10:-0.38 11:0.311688311688311 12:-0.219298245614035 
